tree
version=v2
num_class=1
num_tree_per_iteration=1
label_index=0
max_feature_idx=97
objective=lambdarank
feature_names=Column_0 Column_1 Column_2 Column_3 Column_4 Column_5 Column_6 Column_7 Column_8 Column_9 Column_10 Column_11 Column_12 Column_13 Column_14 Column_15 Column_16 Column_17 Column_18 Column_19 Column_20 Column_21 Column_22 Column_23 Column_24 Column_25 Column_26 Column_27 Column_28 Column_29 Column_30 Column_31 Column_32 Column_33 Column_34 Column_35 Column_36 Column_37 Column_38 Column_39 Column_40 Column_41 Column_42 Column_43 Column_44 Column_45 Column_46 Column_47 Column_48 Column_49 Column_50 Column_51 Column_52 Column_53 Column_54 Column_55 Column_56 Column_57 Column_58 Column_59 Column_60 Column_61 Column_62 Column_63 Column_64 Column_65 Column_66 Column_67 Column_68 Column_69 Column_70 Column_71 Column_72 Column_73 Column_74 Column_75 Column_76 Column_77 Column_78 Column_79 Column_80 Column_81 Column_82 Column_83 Column_84 Column_85 Column_86 Column_87 Column_88 Column_89 Column_90 Column_91 Column_92 Column_93 Column_94 Column_95 Column_96 Column_97
feature_infos=1:3:2 [0:15842] [0:232479] [0:217233] [-1117:70355] [0:15192] [0:11] [0:1] [0:10] [0:1] [0:36] [0:19] [0:8] [0:13] [0:10] [0:11] [0:1] [0:496] [0:11] [0:6] [0:6] [0:10] [0:10] [0:1] [0:251] [0:100] [0:38] [0:43] none [0:2968749] [0:2085420] [0:737670] [0:14093] [0:27805] [0:1503] [0:5991] [0:43487] [0:16704629] [0:10323896] [0:3412063] [0:69859] [0:175888] [0:17471] [0:16734] [0:87483] [37576:112535520] [9920:81322252] [922:9167344] [2:169774] [11:238433] [0:8411] [1:92772] [0:479563] [4792:1379509] [4500:998708] [4:31] [0:1144989] [0:773039] [0:345077] [0:7877] [0:20185] [0:777] [0:4955] [0:24317] [-3.0278809762500002e-17:0.643202664172] [-4.1633363423400001e-17:0.33511668825500002] [-4.1633363423400001e-17:0.50856981148500002] [-4.1633363423400001e-17:0.0105042002709] [-4.1633363423400001e-17:0.053960525501499997] [-4.1633363423400001e-17:0.13651985693800001] [-1.9081958235699999e-17:0.58327653187700002] [-3.2381504884900001e-17:0.24803761112600001] [-4.1633363423400001e-17:0.237439594068] [-3.2381504884900001e-17:0.080378654099799995] [-3.2381504884900001e-17:0.051388518154299997] [-4.1633363423400001e-17:0.12332838569100001] [0.016017688108699999:0.26994389624300003] [2.0367637972899999e-06:0.067575569003999997] [1.89670306089e-05:0.022451178825000001] [-6.7755101944400001e-21:0.00550334280906] [3.8042481114999995e-07:0.0095598988388099996] [0:0.030943729066699999] [-3.2381504884900001e-17:0.81109434189399998] [-3.2381504884900001e-17:0.39419443274999999] [-3.2381504884900001e-17:0.66467914960499996] [-3.2381504884900001e-17:0.010465888295700001] [-3.2381504884900001e-17:0.063228384179700003] [-4.1633363423400001e-17:0.166610205378] [-8.3266726846899991e-17:0.96433281809799998] [-4.1633363423400001e-17:0.57103847207000002] [-6.2660314647400003e-17:0.926686217009] [0.00027177567360300002:0.073121096136799998] [-1.09397416062e-16:0.0013217678601299999] [-1.09397416062e-16:0.0013217678601299999] [-1.10492697775e-16:0.0014970263927699999] [-1.09784881666e-16:0.010368322477300001] [-1.09784881666e-16:0.010368322477300001] [-1.09784881666e-16:0.010514407303599999]
tree_sizes=1885 1878 1881 1881 1885 1891 1882 1889 1889 1884 1892 1896 1890 1882 1881 1895 1895 1892 1892 1887 1887 1891 1896 1875 1896 1899 1889 1896 1898 1889 1905 1891 1903 1901 1883 1880 1906 1914 1893 1903 1893 1894 1887 1915 1903 1918 1891 1883 1904 1887 1903 1890 1900 1890 1879 1904 1895 1896 1905 1875 1915 1906 1901 1889 1902 1893 1895 1908 1902 1891 1898 1899 1900 1881 1882 1883 1885 1890 1900 1912 1887 1884 1892 1894 1891 1894 1893 1899 1895 1902 1869 1875 1905 1876 1913 1900 1892 1891 1897 1900 1903 1900 1918 1892 1902 1895 1898 1889 1899 1880 1903 1892 1921 1904 1880 1918 1892 1901 1896 1896 1889 1882 1909 1906 1887 1897 1917 1895 1886 1916 1913 1891 1889 1903 1871 1897 1920 1909 1887 1888 1913 1917 1909 1902 1887 1889 1908 1888 1901 1869 1888 1905 1895 1917 1897 1906 1895 1897 1885 1904 1882 1907 1870 1893 1897 1900 1914 1908 1893 1924 1894 1911 1887 1885 1872 1914 1863 1907 1899 1890 1903 1894 1889 1898 1896 1872 1903 1894 1898 1918 1896 1893 1911 1924 1876 1883 1885 1863 1873 1898 1907 1878 1861 1895 1910 1859 1897 1878 1887 1886 1875 1870 1838 1890 1897 1884 1869 1917 1879 1883 1867 1899 1876 1875 1871 1899 1869 1846 1857 1862 1872 1880 1865 1912 1859 1892 1899 1866 1880 1882 1884 1884 1915 1847 1873 1905 1845 1904 1870 1864 1898 1887 1850 1817 1876 1866 1885 1859 1891 1850 1892 1884 1880 1859 1856 1837 1883 1879 1870 1894 1894 1859 1857 1861 1795 1865 1878 1841 1871 1883 1901 1845 1865 1870 1859 1894 1890 1862 1860 1888 1903 1869 1875 1837 1891 1858 1882 1840 1837 1909 1864 1825 1889 1905 1874 1893 1892 1884 1862 1881 1881 1909 1891 1867 1903 1825 1879 1904 1818 1885 1862 1865 1868 1885 1828 1863 1852 1851 1825 1887 1850 1896 1826 1851 1849 1832 1847 1852 1845 1873 1886 1870 1942 1849 1861 1810 1847 1858 1839 1900 1862 1875 1848 1882 1841 1862 1844 1878 1875 1845 1861 1843 1880 1862 1842 1882 1830 1852 1829 1880 1871 1854 1828 1878 1876 1875 1840 1872 1866 1887 1889 1879 1859 1869 1821 1852 1847 1861 1824 1847 1860 1888 1884 1856 1865 1866 1829 1866 1833 1864 1895 1860 1833 1863 1817 1866 1872 1863 1855 1855 1845 1843 1867 1881 1879 1821 1894 1845 1811 1854 1888 1850 1817 1907 1899 1867 1858 1861 1863 1902 1889 1895 1882 1863 1849 1865 1876 1859 1849 1841 1865 1842 1863 1877 1856 1862 1857 1847 1894 1838 1864 1825 1863 1881 1868 1863 1867 1838 1867 1889 1800 1821 1849 1811 1851 1815 1847 1887 1831 1868 1859 1881 1875 1855 1881 1834 1859 1885 1873 1855 1819 1885 1839 1848 1843 1866 1819 1874 1830 1808 1891 1871 1890 1851 1826 1850 1864 1811 1857 1868

Tree=0
num_leaves=20
num_cat=0
split_feature=90 82 82 91 90 91 76 90 91 90 82 97 91 90 94 90 91 91 97
split_gain=125979 20943.2 17037.5 8463.17 8054.19 6396.15 4603.12 3110.78 3440.74 2964.39 2452.63 1798.56 1615.76 1641.81 1541.45 1245.42 1294.28 1081.34 882.807
threshold=0.017252505681450005 0.27530755873500007 0.15500374192050001 0.006594977251645001 0.0091725027693000012 0.0091708611718050014 0.11717187817500001 0.040923676709900006 0.010020038021950001 0.030540244651500004 0.097552271356300013 0.00050037114863400007 0.0037171399386700002 0.0040610636923400006 0.00015698725445250004 0.010803842203400001 0.010144545750400002 0.014463173740700002 0.00071947405051300004
decision_type=2 2 2 2 2 2 2 2 2 2 2 2 2 2 2 2 2 2 2
left_child=2 5 6 4 12 -2 10 8 -3 17 18 -8 13 -4 -6 -5 -17 -7 -1
right_child=1 7 3 15 14 9 11 -9 -10 -11 -12 -13 -14 -15 -16 16 -18 -19 -20
leaf_value=-0.0091520470546733387 0.021103975797456723 0.027788815360886645 0.00076794268843343382 -0.0053894638343446035 0.026661872050520043 0.0058957303635453588 -0.015831898388141589 0.033153994841397243 0.013209316894799159 0.01740410417102568 -0.001734943572275471 -0.0084356968677847428 -0.0011744606672902177 0.015923083020456114 0.014125817878620349 0.0045153599153747335 -0.0040793125195007314 -0.0020256534785241128 -0.0053478788188496291
leaf_count=9116311 1604441 2161115 2256458 7759942 686893 2201875 5373188 1330458 937542 569720 17018145 33911638 6364359 1174745 2991843 2284545 2244739 1244562 32069039
internal_value=0 0.194378 -0.0424761 0.0224255 0.0765908 0.103132 -0.0634289 0.278268 0.237303 0.0579033 -0.0464506 -0.0920545 0.0172361 0.0791845 0.168011 -0.0286748 0.00271218 0.0302634 -0.060627
internal_count=133301558 10049713 123251845 25763524 13474298 5620598 97488321 4429115 3098657 4016157 58203495 39284826 9795562 3431203 3678736 12289226 4529284 3446437 41185350
shrinkage=0.1


Tree=1
num_leaves=20
num_cat=0
split_feature=90 82 82 91 97 90 91 76 90 90 91 82 76 76 90 91 91 97 91
split_gain=1.481e+07 2.36594e+06 2.31614e+06 710501 608281 574431 469177 343482 279472 251696 308100 231660 217772 128557 119995 109735 107746 106585 102710
threshold=0.011587410580300002 0.15500374192050001 0.25893064882850003 0.0074711403784450013 0.0022214404800450006 0.023346430165900003 0.0056719874240400009 0.11662795338550001 0.0057054801870700016 0.028354312810100004 0.0071547142987550003 0.097552271356300013 0.085550150310250012 0.085550150310250012 0.017252505681450005 0.0034995816991150006 0.014757538056000002 0.00047614597578750009 0.0091708611718050014
decision_type=2 2 2 2 2 2 2 2 2 2 2 2 2 2 2 2 2 2 2
left_child=1 4 3 -2 12 14 8 11 -3 10 -4 -6 -1 -13 18 -10 -7 -14 -5
right_child=2 6 9 5 7 16 -8 -9 15 -11 -12 13 17 -15 -16 -17 -18 -19 -20
leaf_value=-0.011159386750640292 0.018728543279450807 0.0013225407367563255 0.025972488467005214 0.0054762812540632821 -0.011578703609171835 0.018462413542371502 -0.0037835305662623359 -0.014844204351407731 0.022557357623956414 0.028890401183343406 0.012028009393511212 0.00089986962130527413 -0.024127398513452823 -0.0065449553924626204 0.0047600780594242338 0.010283813809542403 0.0051767994985122204 -0.01746172712374832 -0.0050581719722008547
leaf_count=9756598 3278538 5441934 1963903 1284563 13609577 1122959 11015189 18451984 703839 2744922 1774961 3818024 8905073 11350986 2692219 2573127 522860 27948518 4341784
internal_value=0 -0.0931568 0.167301 0.0893013 -0.128205 0.0489074 0.0173306 -0.0959275 0.0751327 0.254717 0.208753 -0.070624 -0.168834 -0.0412189 0.00665657 0.137962 0.155868 -0.18736 -0.0255073
internal_count=133301558 113574849 19726709 13242923 93840760 9964385 19734089 47230571 8718900 6483786 3738864 28778587 46610189 15169010 8318566 3276966 1645819 36853591 5626347
shrinkage=0.1


Tree=2
num_leaves=20
num_cat=0
split_feature=90 82 82 91 91 90 90 76 82 76 97 91 94 91 90 91 84 91 90
split_gain=6.61275e+06 1.27542e+06 765539 314438 298610 271549 250481 222515 201998 147425 94100.8 87947.9 78478.8 66979.1 59370.3 63472.7 57332.2 56604.7 53623
threshold=0.010803842203400001 0.24338632177200004 0.10011240293150002 0.0083045370150850017 0.0057812472117400012 0.0053117951243550005 0.025592241842100003 0.087264475047100012 0.35733169016350003 0.13515124059500003 0.00088326898516050015 0.0030824427408800005 0.00022693255592350003 0.0028392395385400007 0.016771950625450002 0.0054760023515700003 0.0020753232939400004 0.012176703317200001 0.0030862831907050004
decision_type=2 2 2 2 2 2 2 2 2 2 2 2 2 2 2 2 2 2 2
left_child=2 3 7 14 5 13 17 -1 9 -3 -9 -7 -6 18 15 -2 -10 -5 -4
right_child=1 8 4 6 12 11 -8 10 16 -11 -12 -13 -14 -15 -16 -17 -18 -19 -20
leaf_value=-0.0080090302358173868 0.018341880808448046 0.020939972604622031 -0.0019309721450456758 0.0027589315549265457 -0.0095597084076485313 0.019413922893396399 0.014463182520305977 -0.020016992223068766 0.020137933014224847 0.010522382111776266 -0.013727025321754356 0.0055122482726903815 -0.0037870697724889445 -0.0061758135690371859 0.018763484980821039 0.0075457047060347371 0.028222808186769019 -0.0033620543832352033 0.012288440756040664
leaf_count=16859881 774015 2702631 2844669 4206675 17069743 672161 890086 15729428 833147 2388895 31878738 5546997 8980877 11233750 971239 2856496 1819978 4326776 715376
internal_value=0 0.135462 -0.0833428 0.0618246 -0.0374648 0.00772397 0.0233337 -0.129477 0.212972 0.175321 -0.15446 0.0786167 -0.0739028 -0.0395917 0.133114 0.106011 0.262253 -0.00441654 0.0226454
internal_count=133301558 21769938 111531620 14025287 47063573 21012953 9423537 64468047 7744651 5091526 47608166 6219158 26050620 14793795 4601750 3630511 2653125 8533451 3560045
shrinkage=0.1


Tree=3
num_leaves=20
num_cat=0
split_feature=82 90 90 91 76 91 97 90 90 91 90 94 82 91 90 91 91 97 91
split_gain=4.0425e+06 752970 720868 196733 196556 190559 184108 155273 119936 143127 103234 61639.1 58195.3 53715.6 46766.2 35373.9 32781.3 32065.4 31951.5
threshold=0.18523699810000002 0.020125318725200004 0.0070198769180350009 0.0063382598765100015 0.088571620419600011 0.0072201697309750004 0.0023703489266350005 0.0073991258995650009 0.040923676709900006 0.0074310775320000008 0.014849611240050001 0.00025128770081450001 0.10215086178350001 0.014224987969100001 0.0090421350268100019 0.0036743032631050003 0.013613621266850002 0.00047614597578750009 0.0034995816991150006
decision_type=2 2 2 2 2 2 2 2 2 2 2 2 2 2 2 2 2 2 2
left_child=2 3 4 7 12 14 17 18 9 -3 -7 -5 -1 -11 -4 -9 -10 -6 -2
right_child=1 8 5 11 6 10 -8 15 16 13 -12 -13 -14 -15 -16 -17 -18 -19 -20
leaf_value=-0.0070384627142245628 0.0083441888023355216 0.024044539330340564 0.0020645696899811048 -0.0066290161845406108 -0.021173182510564558 -0.0059642363057177119 -0.0089918313525124867 0.022591399241986002 0.027918917984034688 0.014710616177365035 0.0021253141741005553 0.0032021945093865935 0.00063617186646666311 0.0024496721055593087 0.010063734970410698 0.013833422353979219 0.020324519399657431 -0.015267805563767906 -0.0012982759558855085
leaf_count=16647659 1712802 1499280 3489157 2840740 8606320 10407021 33059212 704292 1036758 2521596 3521608 6247399 3137077 652651 3459175 2977929 452466 27647941 2680475
internal_value=0 0.133561 -0.0676359 0.0624528 -0.101726 0.00366073 -0.122872 0.112313 0.203894 0.173952 -0.0267894 0.00974896 -0.0554023 0.129425 0.0688893 0.160432 0.256815 -0.163426 0.0284353
internal_count=133301558 23326388 109975170 17163637 89098209 20876961 69313473 8075498 6162751 4673527 13928629 9088139 19784736 3174247 6948332 3682221 1489224 36254261 4393277
shrinkage=0.1


Tree=4
num_leaves=20
num_cat=0
split_feature=90 82 82 76 91 91 90 97 82 76 94 90 90 94 91 94 90 82 97
split_gain=2.87526e+06 481298 462097 176880 160885 146605 130680 107631 73437.6 73250 59927.3 53554.5 45326.5 47798.9 38402 37281.4 31576.6 30883.2 29021
threshold=0.013381728818700001 0.12936999536900004 0.25893064882850003 0.087264475047100012 0.011400905412650002 0.0067247528749900002 0.0064076946176750008 0.0024566436203050002 0.41863868610200006 0.16186091793300003 0.00016590444887600001 0.025592241842100003 0.024451494588150002 0.00026912955233650006 0.0028392395385400007 0.00022693255592350003 0.0026863778599200004 0.093109199954950025 0.00059947241604700011
decision_type=2 2 2 2 2 2 2 2 2 2 2 2 2 2 2 2 2 2 2
left_child=1 3 4 17 12 6 14 18 9 -4 -8 -6 13 -2 16 -7 -3 -1 -5
right_child=2 5 8 7 11 15 10 -9 -10 -11 -12 -13 -14 -15 -16 -17 -18 -19 -20
leaf_value=-0.0060608628628200404 0.015115161628731831 -0.0014484196173558807 0.019233827966715231 -0.019157395851608073 -0.0014424578633479423 -0.0082247558971409937 0.016191193116334393 -0.008298647926528898 0.025161649991310271 0.0079650247440704088 0.0054290696191764002 0.0090167766157454345 0.018274603490017315 0.0061756442349817659 -0.0035583421552936841 -0.001984768508445854 0.013300099221376777 -0.00055682707924307388 -0.013542417007195426
leaf_count=16001775 1464432 1551184 3316575 10812773 3625061 7625900 1452630 24660169 1395640 1277826 5362034 711420 728158 3173335 9642611 7233967 794514 3890380 28581174
internal_value=0 -0.0598149 0.130537 -0.0922797 0.0693312 -0.00107412 0.0341811 -0.116957 0.195766 0.172299 0.0861646 0.0111805 0.115664 0.0953326 -0.0151143 -0.0473624 0.0565615 -0.0481835 -0.147357
internal_count=133301558 117609111 15692447 83946271 9702406 33662840 18802973 64054116 5990041 4594401 6814664 4336481 5365925 4637767 11988309 14859867 2345698 19892155 39393947
shrinkage=0.1


Tree=5
num_leaves=20
num_cat=0
split_feature=82 90 90 76 91 91 90 97 82 90 90 94 91 90 82 97 94 91 90
split_gain=2.12971e+06 424526 375068 130299 109631 106114 108094 95512.9 64454.1 51111.7 42950.9 48910.9 40719.7 30573.8 27760.6 26686.3 21968.2 21498.8 23465.7
threshold=0.18523699810000002 0.022471085371250005 0.0070198769180350009 0.087264475047100012 0.0087624495765400018 0.0070481151740200013 0.009716349971550001 0.0034157058865350001 0.35733169016350003 0.015906417644100005 0.014243309084450002 0.00023119126654100002 0.0091708611718050014 0.015572741533400001 0.093109199954950025 0.00081201226534600014 0.00020694757776400002 0.0034995816991150006 0.0027668551130900004
decision_type=2 2 2 2 2 2 2 2 2 2 2 2 2 2 2 2 2 2 2
left_child=2 5 3 14 10 6 17 15 12 -6 11 -4 -3 -7 -1 -5 -8 18 -2
right_child=1 8 4 7 9 13 16 -9 -10 -11 -12 -13 -14 -15 -16 -17 -18 -19 -20
leaf_value=-0.0057779447733858971 -0.00066498652860364589 0.019823304475032416 0.0090946455943092253 -0.017318317263863472 -0.0063835767539182969 -0.0017474827542302111 0.018042755689751746 -0.0070167626132430719 0.023097589238275193 0.0010315408337150658 0.012437064797232975 -0.0002889198182284107 0.012016411363001502 0.0053794884646718192 -0.00010277604542527572 -0.012236651606195491 0.011017800068247152 0.00087280348258167082 0.013418069626681581
leaf_count=15034106 895525 1332480 2610806 14367065 8325199 5970629 1714810 23084061 1953172 2568395 1069000 6302412 1948581 2169789 3948011 32665467 1831999 4465021 1045030
internal_value=0 0.116197 -0.0576785 -0.0867339 0.00312343 0.0596955 0.0964809 -0.108374 0.187467 -0.0326222 0.0477991 0.0294161 0.15569 0.0106396 -0.0448197 -0.13476 0.1492 0.0354665 0.0870839
internal_count=133301558 23327036 109974522 89098710 20875812 18092803 9952385 70116593 5234233 10893594 9982218 8913218 3281061 8140418 18982117 47032532 3546809 6405576 1940555
shrinkage=0.1


Tree=6
num_leaves=20
num_cat=0
split_feature=90 82 82 76 91 90 91 90 90 91 97 90 94 91 90 97 94 91 94
split_gain=1.66794e+06 369682 194683 129700 123111 77025.7 72193.6 53523.6 52988.9 48041.8 43055 33349.1 31855 21158.4 20364.4 19371.5 17783.2 15519.5 14941.4
threshold=0.011170382191550003 0.27530755873500007 0.12936999536900004 0.090741111401750021 0.0091708611718050014 0.028354312810100004 0.0049733456876550012 0.046708038334900011 0.0043339054614100004 0.010992653009450003 0.0020256404719900005 0.01783105843475 0.00019830225253950003 0.0033464479719650005 0.017252505681450005 0.0010924988020750003 0.00023349779035900003 0.013429627950650001 0.00028327310759450005
decision_type=2 2 2 2 2 2 2 2 2 2 2 2 2 2 2 2 2 2 2
left_child=2 4 3 15 11 14 8 9 -4 18 -5 16 -8 -10 -6 -1 -2 -16 -3
right_child=1 7 6 10 5 -7 12 -9 13 -11 -12 -13 -14 -15 17 -17 -18 -19 -20
leaf_value=-0.0075746160582441232 0.012964380399161335 0.019553199982530096 -0.0019368752731488961 -0.013653849519121367 -0.00307567030493498 0.012244957041344215 -0.0068653166166771726 0.023887569733030221 0.014356966439164426 0.0065251668983635162 -0.0086263795042548341 0.015605383320471108 -0.00094683412238930726 0.0052361056587180536 0.005392587333670768 -0.0032085113604882771 0.0058621709567491208 -0.00059186397270355592 0.014383245726899453
leaf_count=6354310 1140228 2174259 5935652 31688538 4911444 761036 10145361 956023 1096264 1018872 27378061 1450442 9220256 3586753 1735546 17154508 3451312 1520851 1621842
internal_value=0 0.102488 -0.0578501 -0.0805403 0.0549826 0.0181638 -0.010008 0.17904 0.0365409 0.156061 -0.10923 0.108287 -0.0368899 0.0814142 -0.00174381 -0.0433774 0.0810436 0.0207864 0.174871
internal_count=133301558 20741855 112559703 82575417 14970859 8928877 29984286 5770996 10618669 4814973 59066599 6041982 19365617 4683017 8167841 23508818 4591540 3256397 3796101
shrinkage=0.1


Tree=7
num_leaves=20
num_cat=0
split_feature=90 82 82 76 91 91 90 90 94 91 90 97 91 90 91 91 97 90 90
split_gain=1.32775e+06 242875 209971 100815 88183.7 67594.3 63431.1 41438.8 38550.2 35149.8 31785.5 25260.1 25078.4 24497.1 25601.1 23211 22118.9 20760.5 14178.2
threshold=0.013381728818700001 0.27530755873500007 0.12936999536900004 0.09501680230795001 0.011400905412650002 0.0072638325111500012 0.0076758334622100003 0.040923676709900006 0.00013312857551550002 0.008074076285720001 0.025592241842100003 0.0010924988020750003 0.0039309599138400006 0.024451494588150002 0.0073619999160350015 0.0039309599138400006 0.00090627708046050017 0.0027668551130900004 0.025592241842100003
decision_type=2 2 2 2 2 2 2 2 2 2 2 2 2 2 2 2 2 2 2
left_child=2 4 3 11 13 6 12 9 16 -3 -6 -1 17 14 -2 -8 -5 -4 -11
right_child=1 7 5 8 10 -7 15 -9 -10 18 -12 -13 -14 -15 -16 -17 -18 -19 -20
leaf_value=-0.008368521983609413 0.012233069244701458 0.017801896746929377 -0.0023997869770693253 -0.015750680487245761 -0.0011234693422278916 -0.0043965851515067522 0.015159956363346451 0.021911258146821388 -0.005877032736335646 0.0032436216172121316 0.0080074690701549805 -0.0031302230807830657 -0.0034304336986005195 0.015376694927055921 0.0047771627196827194 0.0054861679240430809 -0.010522561247108896 0.0071660125972043721 0.012272575579292616
leaf_count=7141068 1958224 2219134 2786585 14365570 3737435 13090076 821728 1330772 10382159 799541 822702 19858358 9537873 888445 3003018 4801521 32197335 2627629 932385
internal_value=0 0.107841 -0.0488646 -0.0746575 0.0602641 -0.00211979 0.0239653 0.172943 -0.103039 0.145835 0.0114962 -0.0430059 -0.00794573 0.100177 0.0818291 0.0760743 -0.117756 0.0322703 0.0934812
internal_count=133301558 15691656 117609902 83944490 10409824 33665412 20575336 5281832 56945064 3951060 4560137 26999426 14952087 5849687 4961242 5623249 46562905 5414214 1731926
shrinkage=0.1


Tree=8
num_leaves=20
num_cat=0
split_feature=90 82 97 91 90 91 90 90 76 91 52 94 90 91 91 90 56 91 91
split_gain=1.09419e+06 277757 104181 82228.3 57880.2 56169.7 82996.1 49908.8 45471.7 34632.6 22680.8 21864.4 18637.2 15108.3 14459.2 13902.2 13352.4 15655.5 13011.5
threshold=0.0099808837628950018 0.25893064882850003 0.0019660295500900002 0.0078416025228300028 0.022471085371250005 0.0057812472117400012 0.0049976652063900007 0.036494231501900003 0.085550150310250012 0.0070481151740200013 2231.5000000000005 0.00022693255592350003 0.016771950625450002 0.014757538056000002 0.0033464479719650005 0.0031675479323050007 2509.5000000000005 0.012176703317200001 0.011880816550450002
decision_type=2 2 2 2 2 2 2 2 2 2 2 2 2 2 2 2 2 2 2
left_child=2 3 8 12 16 6 14 9 -1 -3 -8 -7 -2 -6 15 -4 -5 -18 -9
right_child=1 7 5 4 13 11 10 18 -10 -11 -12 -13 -14 -15 -16 -17 17 -19 -20
leaf_value=-0.0055711969056163194 0.0077533044335649087 0.015991973620109911 -0.0032014433484359416 0.011975287987833885 0.010455274934556225 -0.007463864029825332 0.010288169708217066 0.02267502328452969 -0.012186714375502603 0.0079435878947884241 0.0020300332954921721 -0.0030063187863290167 0.015026837633987898 0.0026488435933888031 -0.0058339166361156165 0.0047260840087383739 0.0011324443331570922 -0.0036862593301612567 0.016529323773626051
leaf_count=8662075 4541522 2485646 8012127 166772 1301594 25154462 2290630 1006740 33111112 2664818 5068293 9532173 946837 596847 15541888 1591541 5501389 4365200 759892
internal_value=0 0.0849302 -0.0557271 0.0409344 0.0152967 -0.0372915 -0.0118425 0.153894 -0.0961757 0.123722 0.0520788 -0.0602899 0.0983215 0.0771235 -0.040343 -0.0148435 -0.00893689 -0.0126755 0.200287
internal_count=133301558 24337257 108964301 17420161 11931802 67191114 32504479 6917096 41773187 5150464 7358923 34686635 5488359 1898441 25145556 9603668 10033361 9866589 1766632
shrinkage=0.1


Tree=9
num_leaves=20
num_cat=0
split_feature=90 82 90 91 91 97 91 90 91 91 90 90 76 91 90 90 91 90 56
split_gain=915997 167605 149708 120098 58250.9 47581.2 32351.5 28637.5 28128.9 22764.5 21976.4 19709 19541.4 19288.3 18906.3 15827.7 15393.9 13137.9 12070.5
threshold=0.013381728818700001 0.27530755873500007 0.0051875613907100011 0.0054760023515700003 0.011400905412650002 0.0013087948807800002 0.0037171399386700002 0.032883488004900006 0.0098683378333550027 0.0054760023515700003 0.030540244651500004 0.0083095683997800023 0.08909555235155002 0.0030363657005050004 0.019487237961500002 0.0031675479323050007 0.0064364929094950013 0.0083095683997800023 2120.5000000000005
decision_type=2 2 2 2 2 2 2 2 2 2 2 2 2 2 2 2 2 2 2
left_child=2 4 5 13 14 12 15 9 11 -3 18 -5 -1 -4 16 -7 -2 -15 -6
right_child=1 7 3 8 10 6 -8 -9 -10 -11 -12 -13 -14 17 -16 -17 -18 -19 -20
leaf_value=-0.0074066646286508652 0.011188651042834369 0.018149783049419194 0.015105404551497529 -0.0039623636528207445 0.014009968279284111 -0.0035366339496244962 -0.0069853031728207135 0.018829297827875478 -0.0065932755543191739 0.0094386635122495777 0.010277412565547211 0.001363219461120036 -0.01314292945563034 0.0027087594070668826 0.012411800381619351 0.0036545026961211503 0.0036514740367462641 0.0092296207898986439 -0.00065740528545853475
leaf_count=6730168 1172723 922257 835548 9713761 61396 12188964 40467640 2021043 9712233 2337093 395949 7519595 21391697 4393758 1883405 2419077 2795376 2237598 4102277
internal_value=0 0.0974963 -0.0440403 -0.00464125 0.0551005 -0.0699169 -0.0556276 0.157032 -0.031516 0.123863 0.0128011 -0.0125606 -0.107486 0.0721273 0.0906076 -0.0202092 0.0638495 0.0559368 -0.00099934
internal_count=133301558 15691519 117610039 34412493 10411126 83197546 55075681 5280393 26945589 3259350 4559622 17233356 28121865 7466904 5851504 14608041 3968099 6631356 4163673
shrinkage=0.1


Tree=10
num_leaves=20
num_cat=0
split_feature=82 90 90 76 91 91 90 90 91 90 97 97 91 56 90 90 94 94 91
split_gain=773481 167838 147040 47275.9 46421.1 35898.4 33846.2 31690.6 33807.2 28394.9 27516.6 16379.8 15824.7 14303.6 13871.9 12343.7 11728.6 11094.5 10147.8
threshold=0.18523699810000002 0.020125318725200004 0.0056371293614600011 0.09501680230795001 0.0061156730899200014 0.0051687554662550013 0.011587410580300002 0.040923676709900006 0.0078416025228300028 0.0083095683997800023 0.0034157058865350001 0.0013087948807800002 0.0091708611718050014 1139.5000000000002 0.009716349971550001 0.0083095683997800023 0.00056592705276400002 0.00059183170673350008 0.010108008387350003
decision_type=2 2 2 2 2 2 2 2 2 2 2 2 2 2 2 2 2 2 2
left_child=2 5 3 11 15 9 -6 8 -3 -2 -5 -1 -8 -14 -7 -4 -10 -9 -16
right_child=1 7 4 10 6 14 12 17 16 -11 -12 -13 13 -15 18 -17 -18 -19 -20
leaf_value=-0.0075790980809839568 0.0032276226912264722 0.016604271178542438 0.0022619494801161162 -0.011134297809758517 -0.0046099426844173176 -0.0017881737256540018 0.0056113645994536237 0.020452770410478188 0.0098840501717140164 0.012894606993698611 -0.0060743365123084158 -0.0028277281319045132 0.014843911224262799 -0.0011489398900128435 0.0056175099796640137 0.0089580680049673872 0.001565283190772716 0.012936731342446915 -0.00022932668240183932
leaf_count=8356110 3801918 1705299 3801258 40530723 14856511 5510785 2088354 1151011 2287499 2018055 17398781 15495060 51543 5117697 3580834 2278440 681441 338077 2252162
internal_value=0 0.0900496 -0.0432529 -0.0705988 -0.00316625 0.040291 -0.0178986 0.142394 0.119482 0.0833868 -0.0918065 -0.042643 0.00977671 -0.0058266 0.0150763 0.0547599 0.0843336 0.186438 0.0352712
internal_count=133301558 23327081 109974477 81780674 28193803 17163754 22114105 6163327 4674239 5819973 57929504 23851170 7257594 5169240 11343781 6079698 2968940 1489088 5832996
shrinkage=0.1


Tree=11
num_leaves=20
num_cat=0
split_feature=90 90 90 91 91 97 76 91 82 94 90 94 91 82 76 56 91 90 97
split_gain=661776 117909 115857 90177.7 88455.2 35054.1 22065.8 19185.2 18434.8 17336.8 16524.3 15820.1 15400.9 13984.4 12695.8 10179.9 12034.4 10036.9 8025.12
threshold=0.013609584911600003 0.028354312810100004 0.0047486082298100014 0.0054760023515700003 0.0087624495765400018 0.0013087948807800002 0.085550150310250012 0.0098683378333550027 0.39312861924250003 0.00014915548907300003 0.0083095683997800023 0.00056592705276400002 0.0054760023515700003 0.22083062166700004 0.08909555235155002 2276.5000000000005 0.013429627950650001 0.007761691607575001 0.0031823789197900003
decision_type=2 2 2 2 2 2 2 2 2 2 2 2 2 2 2 2 2 2 2
left_child=2 4 5 9 12 14 -7 10 11 -4 -5 -3 -2 18 -1 -6 -17 -11 -8
right_child=1 8 3 7 15 6 13 -9 -10 17 -12 -13 -14 -15 -16 16 -18 -19 -20
leaf_value=-0.0071085547594443681 0.01530389343576713 0.014682010480337356 0.010971729626570906 -0.0037390228178639053 0.013064179886384584 -0.0021689865023391073 -0.0089553520880543292 -0.0058306931320675848 0.019211519644822022 0.00055800951015037869 0.0012061349740291197 0.0060899049912813401 0.0088598801881365746 0.00034529288555425804 -0.012206125698035031 0.0030302153118065434 -0.0019310548737402058 0.0070174291388374584 -0.0058302175916484459
leaf_count=6680568 1411191 1799992 2210498 11510056 82058 9798814 19849527 10586010 1200789 4063574 7789561 538998 3418210 2013485 21205129 4178264 2539020 2398961 20026853
internal_value=0 0.0896692 -0.0396937 -0.00571426 0.0561238 -0.0661005 -0.0524359 -0.0293368 0.15133 0.061895 -0.0135101 0.128826 0.110713 -0.0661366 -0.101409 0.0122333 0.00803231 0.0370985 -0.0716824
internal_count=133301558 15168522 118133036 38558660 11628743 79574376 51688679 29885627 3539779 8673033 19299617 2338990 4829401 41889865 27885697 6799342 6717284 6462535 39876380
shrinkage=0.1


Tree=12
num_leaves=20
num_cat=0
split_feature=90 90 91 94 91 76 82 90 97 94 94 91 52 91 90 52 51 82 68
split_gain=572654 150861 88254.2 63671.1 42796.8 22657.4 22483.8 22097.6 16723.1 16019.8 15524.5 12790.1 12754.9 12563.8 12054.6 11815.5 10933.1 8838.9 7847.58
threshold=0.010139333339050002 0.025592241842100003 0.0072638325111500012 5.7980788684700004e-05 0.0050286123241200008 0.085550150310250012 0.35733169016350003 0.0044486918755600015 0.0025995811535650007 0.00019540577151800002 0.00056592705276400002 0.0054760023515700003 1029.5000000000002 0.011677937780100001 0.017252505681450005 2231.5000000000005 532.50000000000011 0.14851729203500005 7.2917234725150007e-06
decision_type=2 2 2 2 2 2 2 2 2 2 2 2 2 2 2 2 2 2 2
left_child=3 2 11 5 7 17 10 12 -7 -6 -3 -2 -5 14 -4 -9 -11 -1 -18
right_child=1 6 13 4 9 8 -8 15 -10 16 -12 -13 -14 -15 -16 -17 18 -19 -20
leaf_value=-0.0044182475505655299 0.012574838089817972 0.012979419017922496 0.00046114413370610882 0.0037807025075247622 -0.0063840461039272496 -0.01061324135827681 0.01759909949999643 0.009085579754471558 -0.0061302074166820425 0.0012926971718790696 0.0047630302781361969 0.0070087666133455467 -0.0042059096118885709 -0.001519729291218957 0.00637543060980635 0.0019621801094723665 0.027173044162897144 0.010283743303941349 -0.0040576516660934059
leaf_count=10414493 2593218 2131286 5363222 2437372 18341423 33202791 1744165 2227466 16144083 4200542 673903 3642065 7153713 5773158 1891913 4453596 21567 163627 10727955
internal_value=0 0.0709887 0.0382087 -0.0461266 -0.0235597 -0.0727101 0.137857 0.0146967 -0.0869191 -0.0430476 0.111815 0.0967199 -0.0189467 0.00554985 0.0259804 0.0486003 -0.0227892 -0.0399879 -0.0386802
internal_count=133301558 23812930 19263576 109488628 49563634 59924994 4549354 16272147 49346874 33291487 2805189 6235283 9591085 13028293 7255135 6681062 14950064 10578120 10749522
shrinkage=0.1


Tree=13
num_leaves=20
num_cat=0
split_feature=82 90 90 91 97 90 76 91 90 91 97 56 84 90 76 91 90 91 94
split_gain=496711 143317 65366 36651.2 32639 26333.5 24448.9 19897.5 15884.4 19283.1 11574.3 10947.1 9933.21 9672.52 8947.13 8477.5 7412.26 7360.48 7267.8
threshold=0.22083062166700004 0.007761691607575001 0.021586319669750002 0.0067247528749900002 0.0013087948807800002 0.022471085371250005 0.088571620419600011 0.0058593279729250011 0.059754589089000006 0.0083045370150850017 0.0034687273143900006 2671.5000000000005 0.0045866013859900004 0.0072113612936500005 0.096581050610500013 0.010682703886350002 0.014849611240050001 0.015306276280950002 0.00016590444887600001
decision_type=2 2 2 2 2 2 2 2 2 2 2 2 2 2 2 2 2 2 2
left_child=1 4 7 12 14 11 -6 13 9 -4 -8 -5 18 -2 -1 16 -13 -11 -3
right_child=2 3 8 5 6 -7 10 -9 -10 17 -12 15 -14 -15 -16 -17 -18 -19 -20
leaf_value=-0.0068325604655620755 0.0037749119592281051 0.01122717446894371 0.01596355005922449 0.0088363498667537697 -0.0016378590589172641 0.0058464392885017192 -0.0078328891278119078 0.0021987108525459297 0.019618651811650654 0.010410026202382263 -0.0044604665927624422 -0.0014294829385054599 0.011811588236504397 0.011031965348753156 -0.011181630654040493 -0.0035770203721990274 0.0040645099930009358 0.0023015975240274753 0.0034786863596180323
leaf_count=8920236 2086576 585462 1773889 301199 13924066 1396360 25420970 5733170 513982 2140681 27697683 6329161 1124248 2304835 20025258 6960536 1373493 419910 4269843
internal_value=0 -0.0305245 0.0980202 0.0151593 -0.0552617 -0.001438 -0.0443414 0.053854 0.135584 0.123273 -0.0581635 -0.0146101 0.0647291 0.088335 -0.0915912 -0.018496 0.000119324 0.0933062 0.0480786
internal_count=133301558 118328515 14973043 22340302 95988213 16360749 67042719 10124581 4848462 4334480 53118653 14964389 5979553 4391411 28945494 14663190 7702654 2560591 4855305
shrinkage=0.1


Tree=14
num_leaves=20
num_cat=0
split_feature=90 90 82 91 97 91 91 91 91 90 91 90 90 52 56 82 90 76 83
split_gain=443061 87920.7 68429.8 63469.9 25767.3 25471.4 16202 14796.8 13549.2 12933.2 13668.2 12685.7 11545 9435.48 8083.74 10125 7731.8 7674.08 7418.4
threshold=0.015572741533400001 0.0051875613907100011 0.27530755873500007 0.0054760023515700003 0.0013087948807800002 0.011677937780100001 0.0037171399386700002 0.0098683378333550027 0.0030824427408800005 0.046708038334900011 0.011057731188150002 0.0090421350268100019 0.0026491201750600004 1844.5000000000002 1509.5000000000002 0.098869268669950008 0.022471085371250005 0.09501680230795001 0.0016674278072550002
decision_type=2 2 2 2 2 2 2 2 2 2 2 2 2 2 2 2 2 2 2
left_child=1 4 5 8 17 18 12 11 -3 10 -4 -5 -6 -14 -7 -16 -17 -1 -2
right_child=2 3 9 7 6 14 -8 -9 -10 -11 -12 -13 13 -15 15 16 -18 -19 -20
leaf_value=-0.0066432556819546289 0.0073945252262773821 0.013190249912481831 0.013189941535906869 -0.0027922741640706338 -0.0034582375485113746 0.014909379125838718 -0.0056385647934144491 -0.0045966528894662703 0.0045933405490968761 0.017471023217279075 0.0048365727639639138 0.0018132873054327509 0.0080627426820718603 -0.0014864194819380441 -0.004096514997881765 6.5230452768958594e-05 0.0060896871474585799 -0.01091158990205625 0.014223280939323863
leaf_count=8316264 3430687 945354 2938258 11328951 11021585 36695 40468891 11305202 7006550 955945 890124 7405177 1461488 2122121 442647 1740730 1216028 19804641 464220
internal_value=0 -0.0319252 0.0881628 -0.000818939 -0.0563612 0.0521582 -0.0444641 -0.0208396 0.0614783 0.133593 0.116587 -0.00554866 -0.0160192 0.0280565 0.0189003 0.0135437 0.0302281 -0.0897953 0.084974
internal_count=133301558 121186224 12115334 37991234 83194990 7331007 55074085 30039330 7951904 4784327 3828382 18734128 14605194 3583609 3436100 3399405 2956758 28120905 3894907
shrinkage=0.1


Tree=15
num_leaves=20
num_cat=0
split_feature=90 82 94 91 90 91 94 91 90 76 51 97 90 52 91 90 82 83 71
split_gain=392387 80166.6 59737.4 34300.3 25606.2 20349.4 19013.3 18625.4 16959 15576.9 14496.2 10335.8 9721.81 8967.78 8590.32 7502.21 7266.37 6677.34 6401.73
threshold=0.012423097388300003 0.22083062166700004 5.7980788684700004e-05 0.0041402266006200011 0.032883488004900006 0.0069336099295400017 0.00016590444887600001 0.0091708611718050014 0.0046310578800000009 0.097243596303350013 589.50000000000011 0.0026587346432900005 0.023346430165900003 1046.5000000000002 0.0083528013761100025 0.059754589089000006 0.082462558818900009 0.0008444120381835001 0.00018267006526350005
decision_type=2 2 2 2 2 2 2 2 2 2 2 2 2 2 2 2 2 2 2
left_child=2 7 9 8 5 -3 -5 17 13 16 18 -11 -9 -4 -6 -16 -1 -2 -8
right_child=1 4 3 6 14 -7 10 12 -10 11 -12 -13 -14 -15 15 -17 -18 -19 -20
leaf_value=-0.0051720914171927996 0.0052343479316959082 0.012048946764773324 0.0052692146897909201 -0.0056265195062979037 0.019106709068399723 0.0049132503214770525 -0.0013513102383345642 -0.00059790839641577637 0.0072171621704311996 -0.0098503335044967145 -0.002923936972487994 -0.0057437506721673788 0.0052206847595060229 -0.0025582029486049609 0.010718093299230916 0.017195209364489143 -3.4819018818106266e-05 0.012125442676615396 0.0036078540138781861
leaf_count=13731317 2437588 2514085 1978699 18433163 667038 3624964 3846349 5057730 3507631 29125837 18160820 14228842 1014373 5003024 1266878 431431 2842554 679841 4749394
internal_value=0 0.07298 -0.0356917 -0.0152296 0.109603 0.0839972 -0.027722 0.0287968 0.0312296 -0.0646285 -0.0134199 -0.0805278 0.00880355 -0.0018453 0.146519 0.129138 -0.0411849 0.0702858 0.0161132
internal_count=133301558 17693928 115607630 55679080 8504396 6139049 45189726 9189532 10489354 59928550 26756563 43354679 6072103 6981723 2365347 1698309 16573871 3117429 8595743
shrinkage=0.1


Tree=16
num_leaves=20
num_cat=0
split_feature=90 90 94 91 91 90 76 94 91 97 82 52 91 90 51 90 91 90 65
split_gain=345860 67536.2 54900.6 49638.3 27285.4 19088.1 15589.2 11947.2 10867.5 10834.1 10447.2 8974.42 8971.31 8687.19 7007.53 6374.72 5897.49 5725.14 6521.09
threshold=0.013119596356000003 0.030540244651500004 7.2942573597450008e-05 0.0091708611718050014 0.0054760023515700003 0.0058721069814150007 0.08909555235155002 0.00021903888525850001 0.0054760023515700003 0.0031823789197900003 0.14645002975500002 2591.5000000000005 0.0098683378333550027 0.046708038334900011 578.50000000000011 0.016771950625450002 0.0035403910201850003 0.018869850251000003 0.012509329425600001
decision_type=2 2 2 2 2 2 2 2 2 2 2 2 2 2 2 2 2 2 2
left_child=2 3 6 8 5 11 10 -6 -2 -8 -1 -4 -3 -14 -9 -10 -7 -5 -19
right_child=1 12 4 17 7 16 9 14 15 -11 -12 -13 13 -15 -16 -17 -18 18 -20
leaf_value=-0.0038740031152318258 0.012805506557807728 0.016463776107576687 0.0023325396097950415 -0.0010901233875222651 -0.0051005454840288584 0.0098895270773918485 -0.0088083382422018876 0.0014032813444418827 0.0038032610203614287 -0.0048390994708416013 0.0091574957124092044 -0.0034794090853008997 0.007868192556518154 0.01452602097126237 -0.0025216981976557166 0.0089379580218921159 0.0038637230273541167 0.003994811826722241 -0.0025971249940915232
leaf_count=13250266 1573996 1210612 4852402 3961606 15814627 1105916 37091041 5141222 2040339 14331773 339082 7413060 1088675 740326 13192276 2308504 4595777 2988299 261759
internal_value=0 0.072599 -0.0331406 0.0477297 -0.012021 0.018688 -0.0594576 -0.0282348 0.0888504 -0.0729068 -0.0331004 -0.00898234 0.132897 0.111405 -0.0136052 0.0707143 0.0551187 0.00987192 0.0264728
internal_count=133301558 16174116 117127442 13134503 52115280 17967155 65012162 34148125 5922839 51422814 13589348 12265462 3039613 1829001 18333498 4348843 5701693 7211664 3250058
shrinkage=0.1


Tree=17
num_leaves=20
num_cat=0
split_feature=90 90 91 94 91 82 76 94 51 90 91 97 91 90 65 93 56 40 65
split_gain=304971 83567.5 50984.7 31705.1 25610.8 12637.1 11994.8 10536.6 10216.6 9339.33 9269.17 7480.79 7009.09 6768.41 6792.86 6482.95 5852.5 5681.04 5510.33
threshold=0.009716349971550001 0.025592241842100003 0.0080251418115950025 5.2226459440600003e-05 0.0037171399386700002 0.32153713382350008 0.097243596303350013 0.00014368492492400004 532.50000000000011 0.0037549186642900005 0.0054760023515700003 0.0038120304796950004 0.014110983177200002 0.018869850251000003 0.012509329425600001 5.2643423106850009e-05 2838.5000000000005 1393.5000000000002 0.00056496614189000015
decision_type=2 2 2 2 2 2 2 2 2 2 2 2 2 2 2 2 2 2 2
left_child=3 2 10 6 9 12 15 -6 -9 -5 -2 -8 -3 16 -15 -1 -4 -12 -7
right_child=1 5 13 4 7 18 11 8 -10 -11 17 -13 -14 14 -16 -17 -18 -19 -20
leaf_value=-0.0016995436278973348 0.010269437788381484 0.010363317726775253 0.008054979223298243 -0.00032876990251219201 -0.0053441456090506656 0.010723181727896859 -0.0087197317365976332 0.00096571570828905991 -0.0034104667880311187 0.006420509854621107 0.0044862515811400295 -0.0046852232580504782 0.0036736999915249662 0.0039088788298438501 -0.0038627687342583463 -0.0058808394120712475 -0.0016563625492488684 0.01175163620227534 0.01588547044566457
leaf_count=7504327 2827423 1645743 208930 4607893 18594802 914745 33344088 7610106 16338909 2994277 4810041 8570128 598646 2591249 218723 8407591 9509877 614970 1389090
internal_value=0 0.0572827 0.0313129 -0.0383861 -0.0208588 0.114925 -0.0602698 -0.0318792 -0.0189153 0.0297738 0.0737942 -0.0751305 0.0866521 0.00012814 0.0246916 -0.0383134 -0.0122874 0.0541078 0.140703
internal_count=133301558 25329437 20781213 107972121 50145987 4548224 57826134 42543817 23949015 7602170 8252434 41914216 2244389 12528779 2809972 15911918 9718807 5425011 2303835
shrinkage=0.1


Tree=18
num_leaves=20
num_cat=0
split_feature=90 82 94 91 91 90 90 83 52 76 94 93 97 66 56 48 66 82 51
split_gain=274812 61265.2 36837.6 23952.3 19894.6 14301.7 13326.8 11046.4 10684 10084.1 8752.44 7342.6 6748.59 6434.33 5291.13 4999.04 4943.94 4567.95 4489.9
threshold=0.011587410580300002 0.27530755873500007 5.2226459440600003e-05 0.0054760023515700003 0.0083045370150850017 0.0058721069814150007 0.023346430165900003 0.0016674278072550002 759.50000000000011 0.095512955965200014 0.00021903888525850001 5.2643423106850009e-05 0.00099905237771300026 0.0033578403670750001 4521.5000000000009 42158.500000000007 0.00049299445773350015 0.39312861924250003 719.50000000000011
decision_type=2 2 2 2 2 2 2 2 2 2 2 2 2 2 2 2 2 2 2
left_child=2 4 9 5 13 8 -6 16 -4 11 15 -1 -11 -2 -12 -5 -3 -18 -7
right_child=1 7 3 10 6 18 -8 -9 -10 12 14 -13 -14 -15 -16 -17 17 -19 -20
leaf_value=-0.0013648233028478731 0.0047981403883361378 0.003986541621835731 0.0048177375013791941 -0.0051373625738645283 6.4119249626399199e-06 0.0069267835400142353 0.00568484316285673 0.014813825873882075 -0.0023513355948625182 -0.010107994845456056 0.0055758983967679424 -0.0059983669971225536 -0.0060877007046328405 0.0099679824512218015 -0.0020890852658682238 0.01074003557428257 0.0085956927071337928 0.013089681897398855 0.0016393981866752458
leaf_count=7096470 2618417 693512 2756385 19635542 7664339 2790909 1749711 1385877 12700261 14669172 626903 7836331 28226747 2009505 14637505 113844 2528311 1075011 2486806
internal_value=0 0.0621238 -0.0330733 -0.0159953 0.0347044 0.0120025 0.0166706 0.110044 -0.00821404 -0.057944 -0.0326328 -0.0366948 -0.0713844 0.0719022 -0.0164148 -0.0493649 0.0929561 0.100905 0.0489117
internal_count=133301558 19724683 113576875 55748155 14041972 20734361 9414050 5682711 15456646 57828720 35013794 14932801 42895919 4627922 15264408 19749386 4296834 3603322 5277715
shrinkage=0.1


Tree=19
num_leaves=20
num_cat=0
split_feature=90 90 82 91 90 91 97 91 90 91 76 90 91 82 48 97 56 97 91
split_gain=247714 48025.9 37393.2 34796 18442.7 16893 13646.3 9565.89 9023.88 8676.65 8308.69 7271.84 6837.34 6128.68 5560.28 5467 5350 4828.25 4631.14
threshold=0.015572741533400001 0.0045688819616050008 0.18346132508700003 0.0054760023515700003 0.040923676709900006 0.0074310775320000008 0.0013087948807800002 0.0031339028572800005 0.0094316863663750014 0.0087140588507350018 0.095512955965200014 0.0083095683997800023 0.0091708611718050014 0.22083062166700004 30198.500000000004 0.00013600297851150002 1220.5000000000002 0.0026344563115850003 0.014224987969100001
decision_type=2 2 2 2 2 2 2 2 2 2 2 2 2 2 2 2 2 2 2
left_child=1 6 12 7 5 -4 14 -3 -5 -10 -8 -9 -2 -12 15 -1 -14 -18 -7
right_child=2 3 4 8 -6 18 10 11 9 -11 13 -13 16 -15 -16 -17 17 -19 -20
leaf_value=-0.012545130751303066 0.0071967872527411133 0.010266385339673383 0.011451822128056371 -0.0033552064498563101 0.014042653186821475 0.0061557849128445613 -0.0018632533802174956 0.00052020441930897168 0.0025290534024387024 -0.0021932826235197631 -0.00551802458438907 0.0061025635525923695 0.012601787958970012 0.0007532667991146559 0.019735603026513431 -0.006801687599589855 -0.0055351547160097493 0.0012026358959367953 0.00052545421273726017
leaf_count=4303157 789712 1264260 2557972 21415691 1489183 3748468 14027795 5754672 5254022 6863968 34332867 2623077 29176 1885899 32762 23429120 288150 2307918 903689
internal_value=0 -0.0261023 0.0737377 -0.00315992 0.0942448 0.0778667 -0.0480289 0.0440611 -0.0189543 -0.00127245 -0.0374915 0.0301019 0.0194628 -0.0501015 -0.074558 -0.0760315 0.00532793 -0.000778956 0.0522601
internal_count=133301558 121187290 12114268 43175690 8699312 7210129 78011600 9642009 33533681 12117990 50246561 8377749 3414956 36218766 27765039 27732277 2625244 2596068 4652157
shrinkage=0.1


Tree=20
num_leaves=20
num_cat=0
split_feature=90 90 90 91 91 97 91 91 90 94 90 76 91 48 97 66 91 57 51
split_gain=221676 45840 32768.5 29660.7 26565.4 16476.5 10075.1 10062.6 8255.52 6318.12 6587.03 6226.19 5339.11 5197.48 4803.72 4796.26 4094.64 3900.24 3804.36
threshold=0.015906417644100005 0.006918132185560001 0.030540244651500004 0.0072638325111500012 0.0091708611718050014 0.0018823573313350003 0.0039552270771500012 0.0037171399386700002 0.0037549186642900005 0.00033369802224050008 0.059754589089000006 0.11488316780850001 0.0054760023515700003 30198.500000000004 0.00013600297851150002 0.0023719898251250006 0.0023120944295450005 2668.5000000000005 2527.5000000000005
decision_type=2 2 2 2 2 2 2 2 2 2 2 2 2 2 2 2 2 2 2
left_child=1 5 4 7 12 11 8 -3 -7 -4 -11 13 -2 14 -1 18 -10 -5 -9
right_child=2 3 9 17 -6 6 -8 15 16 10 -12 -13 -14 -15 -16 -17 -18 -19 -20
leaf_value=-0.011867143768349287 0.012455573073475824 0.010251931006054841 0.015526788214929185 0.0032097325264218062 0.0015660106908132227 -0.0020550277293269969 -0.0039165176577271301 0.0023706239649567426 0.012963470321247856 0.0084181042047845791 0.014810749228677934 -0.008845516935458533 0.0072374659809048177 0.012642485780325317 -0.0048051501799996335 0.0050408279444276336 0.002441923920547648 -0.0025287028848493143 -0.0033504745845765009
leaf_count=1954862 953930 1054870 848586 788693 4905923 12624537 40029305 3986706 264172 1751907 438890 17650454 2713890 78128 19746803 4349562 2878526 14471804 1810010
internal_value=0 -0.0244572 0.0725841 0.00624521 0.0487345 -0.0404649 -0.0288691 0.0401268 -0.00492204 0.11622 0.101679 -0.063642 0.088186 -0.0513683 -0.0535055 0.0288392 0.0380723 -0.0211425 0.0104605
internal_count=133301558 121688432 11613126 26461645 8573743 95226787 55796540 11201148 15767235 3039383 2190797 39430247 3667820 21779793 21701665 10146278 3142698 15260497 5796716
shrinkage=0.1


Tree=21
num_leaves=20
num_cat=0
split_feature=90 90 94 91 51 90 91 90 91 97 91 77 76 94 91 94 56 93 25
split_gain=197310 42233.3 31980.5 27517.2 17613.9 9378.67 12313 8348.88 8398.89 7615.52 7539.93 6512.89 6350.24 4592.85 4434.95 4385.77 4282.66 4212.53 4192.19
threshold=0.012659891097600002 0.026756964524950005 5.083228752255001e-05 0.0074310775320000008 186.50000000000003 0.0083095683997800023 0.0067578494436850009 0.046708038334900011 0.0073864402687950003 0.0008585494191310001 0.0033464479719650005 0.0064523358652550005 0.096001608244250011 0.00013312857551550002 0.012176703317200001 0.00020694757776400002 2351.5000000000005 4.9962826499550007e-05 86.500000000000014
decision_type=2 2 2 2 2 2 2 2 2 2 2 2 2 2 2 2 2 2 2
left_child=2 3 9 15 10 -6 -7 8 -3 11 -4 -1 17 -12 -5 -2 -16 -11 -18
right_child=1 7 4 14 5 6 -8 -9 -10 12 13 -13 -14 -15 16 -17 18 -19 -20
leaf_value=-0.0083356387282270804 0.010770416787369261 0.013758953272005726 0.0073597501732741476 0.0027210485596691671 -0.0031725970876702921 0.0039516458984574518 -0.0022341190760948523 0.014009958982204843 0.0068832464749928914 3.7777123344929086e-05 -0.0030157382387995483 0.016665032006702881 -0.0056410969370280757 0.0027187884784585763 0.0093749944366860374 0.0061865882028333003 -0.0013244907767978719 -0.0044208743541970094 0.01918648930794992
leaf_count=17999905 1399277 741627 2224185 4867487 37163755 4126603 8119017 1033319 2271559 4404133 2904667 34084 29499433 4236562 78094 2753602 4062404 5372839 9006
internal_value=0 0.0585563 -0.0279403 0.034441 -0.0124666 -0.0211382 4.57178e-05 0.103669 0.0867222 -0.0530697 0.0274383 -0.0799994 -0.0440473 0.00946179 0.0103545 0.0796006 -0.00559322 -0.02217 -0.0106784
internal_count=133301558 17216375 116085183 13169870 58774789 49409375 12245620 4046505 3013186 57310394 9365414 18033989 39276405 7141229 9016991 4152879 4149504 9776972 4071410
shrinkage=0.1


Tree=22
num_leaves=20
num_cat=0
split_feature=82 90 94 90 91 76 90 80 91 91 48 72 52 90 97 56 26 82 90
split_gain=179142 43559.4 34828.4 10317.9 11185.8 9193.33 8775.85 9311.92 8269.48 8174.29 6162.3 4779.69 4767.39 4751.34 4595.23 4556.59 4478.03 4768.78 5157.84
threshold=0.18346132508700003 0.018869850251000003 8.1384774947450007e-05 0.040923676709900006 0.0067247528749900002 0.097243596303350013 0.0094316863663750014 0.00030113716012050007 0.0052321823374000013 0.0043766102974300012 30198.500000000004 0.00036564766634700007 1266.5000000000002 0.0064076946176750008 0.0016951137036050003 2351.5000000000005 28.500000000000004 0.10937937547050001 0.022471085371250005
decision_type=2 2 2 2 2 2 2 2 2 2 2 2 2 2 2 2 2 2 2
left_child=2 9 5 4 -3 10 8 -8 12 13 14 -11 -4 -2 -1 -9 17 -17 -19
right_child=1 3 6 -5 -6 -7 7 15 -10 11 -12 -13 -14 -15 -16 16 -18 18 -20
leaf_value=-0.0051890513377686647 0.002129902217637902 0.012009105527919214 0.0048254094476043834 0.012714279863675571 0.0056447372788555788 -0.0064369473414061275 0.0053756906473086518 0.0078960249087350574 -0.003336807973719655 -0.0029417052344266163 0.020180541056211865 0.0019222367129774519 -0.00079480348038869677 0.008382517794694155 -0.00161723846919727 -0.0033213292236632334 0.018122185215886412 -0.00059050500378129544 0.0052992162676916473
leaf_count=10347952 2517860 1348652 2110549 1489158 3951221 45802871 2504199 157118 21435904 2865504 28919 10021434 8984402 1648251 8521118 2813749 9057 6091898 651742
internal_value=0 0.0571065 -0.0266834 0.0913485 0.0758853 -0.0505428 -0.00848815 0.00755212 -0.0205085 0.0231081 -0.0313871 0.0105391 0.00420742 0.0577472 -0.0332032 -0.00278435 -0.00628282 -0.00784587 0.00456021
internal_count=133301558 23842080 109459478 6789031 5299873 64700860 44758618 12227763 32530855 17053049 18897989 12886938 11094951 4166111 18869070 9723564 9566446 9557389 6743640
shrinkage=0.1


Tree=23
num_leaves=20
num_cat=0
split_feature=90 90 90 91 91 97 48 91 91 90 97 91 65 57 91 84 91 61 2
split_gain=161693 33581.9 24804.2 24047.3 20430.5 10487.7 8088.23 6986.96 6446.5 6780.6 5390.75 4731.8 4686.65 4582.76 4313.23 4267.42 4105.84 3922.06 3862.37
threshold=0.015906417644100005 0.0060194131308750004 0.032883488004900006 0.0054760023515700003 0.0091708611718050014 0.0017757232609400002 30198.500000000004 0.0087140588507350018 0.0030824427408800005 0.0019928237727400004 0.00013600297851150002 0.0087140588507350018 0.012509329425600001 4832.5000000000009 0.0032565678161500006 0.0022450687941350006 0.0054760023515700003 290.00000000000006 1098.5000000000002
decision_type=2 2 2 2 2 2 2 2 2 2 2 2 2 2 2 2 2 2 2
left_child=1 5 4 14 16 6 10 15 9 -7 -1 -4 17 -11 -3 -5 -2 -6 -14
right_child=2 3 11 7 12 8 -8 -9 -10 13 -12 -13 18 -15 -16 -17 -18 -19 -20
leaf_value=-0.011640254610685965 0.011447722062787827 0.009788474044319425 0.01474164370953299 -0.0012005682038729302 0.0022411585257466177 -0.0029407716727298909 0.017022449495140261 -0.0027574703944990126 -0.003456654664495633 0.011487285563623556 -0.0054742809011931659 0.0095168511259421679 0.006113653610461494 0.0016154212080956719 0.0039568254552626537 0.0024549333279028688 0.0067257454674423114 0.016498921306774973 -0.005505192657162792
leaf_count=4309470 985483 884371 749574 7384270 4832703 5580881 43740 13027412 43771286 490910 32709425 1800411 55956 2652118 5218008 5616014 2897327 21759 270440
internal_value=0 -0.0219256 0.0649231 0.00238583 0.0455406 -0.0380446 -0.058384 -0.0118489 -0.0280381 0.000552042 -0.0604662 0.109687 0.0164386 0.0358021 0.0518319 0.00489923 0.0807299 0.025476 -0.0310528
internal_count=133301558 121687905 11613653 32130075 9063668 89557830 37062635 26027696 52495195 8723909 37018895 2549985 5180858 3143028 6102379 13000284 3882810 4854462 326396
shrinkage=0.1


Tree=24
num_leaves=20
num_cat=0
split_feature=82 90 94 90 94 48 90 91 76 91 84 91 97 71 52 93 56 85 93
split_gain=145677 35578.2 26525.9 9458.04 10007.2 8909.75 7527.6 7849.74 7277.1 6806.38 6663.12 6092.09 4801.24 4489.3 4353.57 3914.46 3811.81 3639.87 3800.22
threshold=0.18346132508700003 0.01783105843475 7.2942573597450008e-05 0.046708038334900011 0.00029732368131900002 30198.500000000004 0.0094316863663750014 0.0087624495765400018 0.11841536918600001 0.0052321823374000013 0.00044607782736550008 0.0034356296429950005 0.00034973442954600004 0.00055787529663150006 2591.5000000000005 1.9635215040850003e-05 1139.5000000000002 0.00038621915037700006 0.00034356201482100006
decision_type=2 2 2 2 2 2 2 2 2 2 2 2 2 2 2 2 2 2 2
left_child=2 10 5 4 -3 8 9 13 12 14 -2 -12 -1 -8 -4 -14 -9 -18 -19
right_child=1 3 6 -5 -6 -7 7 16 -10 -11 11 -13 15 -15 -16 -17 17 18 -20
leaf_value=-0.0083748008734439768 -0.0014650058524539494 0.010621574139154495 0.0030896537233210245 0.012724779971611096 0.0051959238179151417 0.017118837768143491 0.0012142350908294936 0.0087140852399183264 -0.0068587747718660197 -0.0031654866942341289 0.0082497038014578833 0.0021767532798398783 -0.00011802950934207172 0.0066368470681119592 -0.001445460486868826 -0.0038813586095226976 -0.0015304489733639845 -0.0091462913412161673 0.01169139671443096
leaf_count=4464704 5094254 2042594 3988006 1026817 4296562 35171 2828886 71238 27880918 22768114 1470456 9910829 5464273 1827810 8126440 24496651 7418970 32577 56288
internal_value=0 0.0530384 -0.0246653 0.0831978 0.0716347 -0.0469999 -0.0090373 0.00644288 -0.0483052 -0.0199133 0.0196673 0.0312373 -0.0367683 0.0352963 0.00216092 -0.0316128 -0.00830264 -0.0115735 0.0710645
internal_count=133301558 23841512 109460046 7365973 6339156 62341717 47118329 12235769 62306546 34882560 16475539 11381285 34425628 4656696 12114446 29960924 7579073 7507835 88865
shrinkage=0.1


Tree=25
num_leaves=20
num_cat=0
split_feature=90 90 84 91 49 48 97 82 90 91 77 91 91 94 91 65 90 84 78
split_gain=134008 30568.1 19918.4 18919 15478.7 7542.81 9421.77 6167.96 5578.3 7570.85 5108.38 4806.64 4133.9 4659.35 3927.74 3709.16 3916.99 3304.68 3226.07
threshold=0.012423097388300003 0.025592241842100003 0.00048299080051900008 0.0080251418115950025 1216.5000000000002 29752.000000000004 0.00037426621881750003 0.39312861924250003 0.0076758334622100003 0.0073619999160350015 0.00024235735523150002 0.010503173766000002 0.0020835189942500004 8.1384774947450007e-05 0.0055206883762900011 0.012509329425600001 0.020125318725200004 0.0014937125749600003 0.0021567338627950005
decision_type=2 2 2 2 2 2 2 2 2 2 2 2 2 2 2 2 2 2 2
left_child=2 3 5 14 12 6 -1 11 18 -10 -8 -3 -4 -14 -2 16 -5 -9 -6
right_child=1 7 4 15 8 -7 10 17 9 -11 -12 -13 13 -15 -16 -17 -18 -19 -20
leaf_value=-0.010204915621026281 0.0091031827252941368 0.0097922700845418098 0.011136757034941935 -0.0001291671303714937 -0.0014566786986749041 0.012569076487775277 -0.0028430474476953387 0.0068890386702888107 0.0027505053283472785 -0.0023965544181079757 -0.0055235858492438689 0.0052103944600577975 -0.0021216728083844291 0.0043294107441573734 0.0047288650669923046 -0.0043998337057593812 0.0038008680981804406 0.013782955682500167 -0.0038334653855256412
leaf_count=7575443 1657839 1543847 567958 6197215 16943738 50164 29124769 337053 5304774 5910502 24200304 1679119 2798036 4292299 3080329 308467 1902884 989418 18837400
internal_value=0 0.0507864 -0.0242895 0.0280546 -0.00960646 -0.0427608 -0.0441375 0.0890359 -0.0180714 -9.12887e-05 -0.0390946 0.074796 0.0350838 0.0267671 0.0649376 0.00479333 0.0104149 0.122087 -0.0270901
internal_count=133301558 17696171 115605387 13146734 54654707 60950680 60900516 4549437 46996414 11215276 53325073 3222966 7658293 7090335 4738168 8408566 8100099 1326471 35781138
shrinkage=0.1


Tree=26
num_leaves=20
num_cat=0
split_feature=90 90 91 94 91 77 90 97 90 91 91 94 48 57 76 93 63 57 66
split_gain=119670 32928.6 21309.5 14805.9 10349.8 8373.46 6765.05 6442.39 6181.08 5801.47 4930.95 4531.5 4580.77 4512.28 4104.88 4536.57 3959.62 3957.78 3402.01
threshold=0.010449276316050001 0.025592241842100003 0.0068252855433050012 3.8699140091200003e-05 0.0044075745998300008 0.0064523358652550005 0.0039030523438050003 0.00021672385849400003 0.046708038334900011 0.0073864402687950003 0.012031522403500002 0.00017522847605350002 42158.500000000007 4747.5000000000009 0.112035655804 1.8742404879950002e-05 65.500000000000014 2488.5000000000005 0.0033578403670750001
decision_type=2 2 2 2 2 2 2 2 2 2 2 2 2 2 2 2 2 2 2
left_child=3 2 18 5 6 7 13 -1 9 -3 -4 12 -6 -5 15 -9 -8 -13 -2
right_child=1 8 10 4 11 -7 16 14 -10 -11 -12 17 -14 -15 -16 -17 -18 -19 -20
leaf_value=-0.010543122480772077 0.0047214464114525801 0.011345094658346662 0.0019193283753467746 0.004470600404284238 -0.003869367586200375 0.012096584675938086 0.0072611512831289998 0.00032468690171566484 0.012028580733787576 0.0056207446537903921 -0.0013480593922391385 0.0060889486481132057 0.01368498718455341 -0.0026996094100445074 -0.0057728045197985821 -0.0041766699658045857 0.001643265471711332 -0.0015941661616795545 0.0087671921485465414
leaf_count=5709024 2877709 907982 7891959 1455097 23801346 35310 1800720 4785640 1032448 2608431 5227893 584586 66817 7357131 25485951 16188579 3923272 19315608 2246055
internal_value=0 0.0432509 0.0235886 -0.026084 -0.0147115 -0.0457109 0.0116571 -0.0477754 0.0852794 0.0713764 0.00484383 -0.0240574 -0.0368858 -0.0128896 -0.0431268 -0.0304881 0.0367342 -0.0126654 0.0654656
internal_count=133301558 22792477 18243616 110509081 58304577 52204504 14536220 52169194 4548861 3516413 13119852 43768357 23868163 8812228 46460170 20974219 5723992 19900194 5123764
shrinkage=0.1


Tree=27
num_leaves=20
num_cat=0
split_feature=90 90 91 82 84 49 65 48 97 91 94 56 51 77 69 77 65 84 84
split_gain=111128 26616.1 18796.5 13779.8 9171.08 8942.83 8657.43 6260.93 7128.17 4974.54 4739.07 3653.86 3550.34 3515.06 3441.84 3438.83 3339.05 3008 2772.65
threshold=0.01783105843475 0.0076758334622100003 0.0067578494436850009 0.32153713382350008 0.00048299080051900008 726.50000000000011 0.012509329425600001 29752.000000000004 0.00064736639473500013 0.0091708611718050014 0.00016590444887600001 2929.5000000000005 2575.5000000000005 0.00024235735523150002 0.0026221173963900004 0.00040639888917200006 0.00087582693171600016 0.0015706184865900003 0.00024844489386800008
decision_type=2 2 2 2 2 2 2 2 2 2 2 2 2 2 2 2 2 2 2
left_child=1 4 10 6 7 -6 9 8 -1 -2 -3 -4 18 -10 -8 17 -5 -7 -13
right_child=3 2 11 16 5 15 14 -9 13 -11 -12 12 -14 -15 -16 -17 -18 -19 -20
leaf_value=-0.0084029294496641652 0.0077481817968577593 0.0080540394685697288 0.0058702237911875546 0.0075623568993605774 0.0040941440795455863 -0.0018900880321382945 -0.003617113091564335 0.010305526403497287 -0.0027556572825940349 0.0037177150097471925 0.003041847153009931 -0.0034902805674111217 -0.0033769323385295733 -0.0052391175611681169 0.024098221227456928 -0.0033499931655268066 0.011674448912953298 0.0018832205458092694 0.00052757452798657476
leaf_count=11724701 2120358 1515913 384161 1661110 3270841 13437980 305615 37848 24800583 4005059 6934317 2868388 5513039 20665771 2641 21356587 1427255 3988611 7280780
internal_value=0 -0.0168913 0.00869008 0.0627179 -0.0296451 -0.0163359 0.044345 -0.042303 -0.0438467 0.0526783 0.0428832 -0.0115641 -0.014615 -0.0374214 -0.0276184 -0.0222195 0.096297 -0.0095516 -0.00326812
internal_count=133301558 123779520 24496598 9522038 99282922 42054019 6433673 57228903 57191055 6125417 8450230 16046368 15662207 45466354 308256 38783178 3088365 17426591 10149168
shrinkage=0.1


Tree=28
num_leaves=20
num_cat=0
split_feature=90 90 84 78 94 97 48 84 90 91 91 84 76 78 65 93 72 49 2
split_gain=100629 19815.4 19082.6 14523 14237.9 7269.29 7498.14 4923.13 4256.79 4756.14 4200.38 5874.72 3815 3501.16 3160.85 3017.22 2902.94 4231.85 2672.62
threshold=0.014243309084450002 0.028354312810100004 0.0010107066709550002 0.0013736429090450003 0.00035546351837200009 0.0022773202556250005 30198.500000000004 0.0022899136763250005 0.059754589089000006 0.011512616374550002 0.0093904803162250024 0.0028276930212250005 0.11231403609950001 0.0008616092784135002 0.012509329425600001 0.00021902834148550002 0.00019814473128300004 462.50000000000006 737.50000000000011
decision_type=2 2 2 2 2 2 2 2 2 2 2 2 2 2 2 2 2 2 2
left_child=2 4 5 7 15 6 12 13 9 -3 11 -5 -1 -4 -6 -2 -7 -18 -16
right_child=1 8 3 10 14 16 -8 -9 -10 -11 -12 -13 -14 -15 18 -17 17 -19 -20
leaf_value=-0.004161200550640556 0.0088151736204382415 0.0095259485369719767 0.0066976540234869658 -0.0017896151581125717 0.0013254856803850753 -0.0039768960215080104 0.0090477763299145961 0.0086547984651905024 0.012864813191277566 0.0044252915973606302 -0.0030766178904771714 0.0019764278213238538 -0.0073910982891588388 0.00044545457982859044 0.0061663111660556942 0.0048130087185650925 0.0015293936662823693 -0.0023427458032428774 -0.0058523002665704892
leaf_count=20551826 1404202 1854258 1285826 15591719 5807605 12585421 47928 1667831 522218 1163973 8622858 7819805 18529394 3823641 35879 3072572 4515522 24112121 286959
internal_value=0 0.0506605 -0.0195372 -0.000536396 0.0313519 -0.0332219 -0.0497577 0.0437456 0.086931 0.0765502 -0.0112102 -0.00253489 -0.0530222 0.0244723 0.00640345 0.0622593 -0.0229176 -0.0163634 -0.0387499
internal_count=133301558 14147666 119153892 38811680 10607217 80342212 39129148 6777298 3540449 3018231 32034382 23411524 39081220 5109467 6130443 4476774 41213064 28627643 322838
shrinkage=0.1


Tree=29
num_leaves=20
num_cat=0
split_feature=90 90 91 90 91 48 97 90 91 91 65 76 90 91 82 91 82 93 56
split_gain=92010.1 22784.9 16470.5 12121.4 10929 5731.94 6163.98 4795.74 4651.74 4106.63 3888.62 3456.23 3210.95 2944.64 2831.88 2793.1 2619.94 2617.09 2387.49
threshold=0.01783105843475 0.0047486082298100014 0.0054760023515700003 0.036494231501900003 0.0091708611718050014 30198.500000000004 0.00034973442954600004 0.009716349971550001 0.010682703886350002 0.0028650540485250001 0.012509329425600001 0.11964348357250001 0.0085467966797250026 0.0087140588507350018 0.21827673023050001 0.0054760023515700003 0.14745961356650003 1.8742404879950002e-05 1967.5000000000002
decision_type=2 2 2 2 2 2 2 2 2 2 2 2 2 2 2 2 2 2 2
left_child=1 5 9 4 15 6 -1 18 -9 -3 -6 16 -11 -5 -13 -2 17 -8 -4
right_child=3 2 7 13 10 -7 11 8 -10 12 -12 14 -14 -15 -16 -17 -18 -19 -20
leaf_value=-0.0082216651091122413 0.010752636474306217 0.0092615779009721771 0.0063414826423452073 0.013533599289005145 0.0028364409728272692 0.0098422362421834442 2.625672788265612e-05 0.0015948507321078094 -0.0020330589693862721 0.0011012942216811182 -0.0032209405468431418 -0.0049635874106537586 0.0050620574363184831 0.0083907260125719585 0.00026998866264918761 0.006130545507679868 0.0011758890055706571 -0.0031455859199343247 -0.0024484159090624475
leaf_count=8357311 756630 837713 340250 549912 4058607 46037 5322855 8450005 5063078 5712141 298420 27801349 2894537 1475208 1762154 2386736 2640166 33644660 20903789
internal_value=0 -0.0158049 0.000902686 0.058482 0.0434843 -0.033199 -0.0343328 -0.0103482 0.00234846 0.0375095 0.0194184 -0.0309527 0.0295828 0.0966484 -0.0446924 0.0733566 -0.0238813 -0.0270113 -0.0226963
internal_count=133301558 123776045 44201513 9525513 7500393 79574532 79528495 34757122 13513083 9444391 4357027 71171184 8606678 2025120 29563503 3143366 41607681 38967515 21244039
shrinkage=0.1


Tree=30
num_leaves=20
num_cat=0
split_feature=90 90 91 84 78 48 97 90 91 84 56 77 64 91 84 51 72 91 52
split_gain=84053.4 21879.4 12824.6 12099.7 9864.02 5427.72 6870.1 5350.78 4953.69 3718.86 3468.1 3304.89 3093.09 2807.12 3413.42 2790.1 2573.14 2495.38 2430.5
threshold=0.011381152835900002 0.024451494588150002 0.0067578494436850009 0.00091159749104300009 0.0013820078954050001 29752.000000000004 0.0010924988020750003 0.046708038334900011 0.0091708611718050014 0.0022450687941350006 9028.5000000000018 0.00031221659496550008 0.071718869291050022 0.009178747923800001 0.0028276930212250005 703.50000000000011 0.00020486163991400002 0.0037171399386700002 2208.5000000000005
decision_type=2 2 2 2 2 2 2 2 2 2 2 2 2 2 2 2 2 2 2
left_child=3 2 17 5 9 6 18 8 -3 15 -4 16 -12 14 -6 -5 -8 -2 -1
right_child=1 7 10 4 13 -7 11 -9 -10 -11 12 -13 -14 -15 -16 -17 -18 -19 -20
leaf_value=-0.0080825941550774407 0.010816979732160649 0.0087297786626647205 0.0038766521454622451 0.0040825833963629597 -0.0018248662907985856 0.0091373460180351994 -0.0035265130651171541 0.010850869804424946 0.0040795791954779973 0.0077562829928146757 -0.0061659770387465203 -0.0043880014176035506 0.00021813944672796471 -0.0033029986488254739 0.0013813709791537598 -0.0012250206427283064 -0.0012600915855375851 0.0050578612783977158 -0.0043297443119783606
leaf_count=11119036 427177 1710555 1553981 2831806 16261192 62861 15201758 1033518 2318438 1458825 337671 17929612 9236247 7533281 6329225 2788611 21791098 3616127 9760539
internal_value=0 0.0402794 0.0207967 -0.021352 -0.00486618 -0.0328404 -0.0340011 0.0734507 0.0612667 0.0331104 0.00485077 -0.0275319 -0.00197107 -0.0147661 -0.0073808 0.0176899 -0.0208808 0.0585053 -0.0624719
internal_count=133301558 20233714 15171203 113067844 37202940 75864904 75802043 5062511 4028993 7079242 11127899 54922468 9573918 30123698 22590417 5620417 36992856 4043304 20879575
shrinkage=0.1


Tree=31
num_leaves=20
num_cat=0
split_feature=90 90 91 84 49 48 97 90 91 56 91 66 77 78 84 90 94 68 57
split_gain=77293.1 23734.3 14852.9 9131.99 8295.32 4452.54 5463.72 4276.09 4562.86 3322.28 3734 3024.02 2946.78 2766.57 3398.23 2686.14 2358.42 2285.89 2283.46
threshold=0.0094316863663750014 0.025592241842100003 0.0067578494436850009 0.00048299080051900008 906.50000000000011 29752.000000000004 0.0006220665901555001 0.059754589089000006 0.0073864402687950003 2929.5000000000005 0.013183649264650002 0.0035393024206300003 0.00024235735523150002 0.0020974649248900004 0.0021174457138100002 0.019487237961500002 0.00056592705276400002 9.1745436669000001e-05 170511.00000000003
decision_type=2 2 2 2 2 2 2 2 2 2 2 2 2 2 2 2 2 2 2
left_child=3 2 11 5 -5 6 -1 8 -3 -4 15 -2 -8 14 -6 -11 -10 -9 -12
right_child=1 7 9 4 13 -7 12 17 16 10 18 -13 -14 -15 -16 -17 -18 -19 -20
leaf_value=-0.0076620599635009281 0.0037720624971810581 0.01038952469388657 0.0071931977031484649 0.0033970082706849592 -0.0013949469608208526 0.007891802677822312 -0.0023915526229804866 -0.032948662105007458 0.0062427125234464538 0.00018701157896825634 -0.0024954055672755872 0.0075899052481034918 -0.0046880219137741203 -0.0027229137699420506 0.0031019931831509687 0.0036240559729966947 0.0020101819045747061 0.012036419729037313 0.010791302584873212
leaf_count=11350618 3891897 964889 302222 4824897 17436494 43397 26099896 6048 2288449 9618567 3869502 2364215 21485286 22904939 2808410 1724555 773993 516331 26953
internal_value=0 0.0342994 0.0185802 -0.023484 -0.0114601 -0.0368068 -0.0382296 0.0730376 0.0644974 0.00298832 0.000461573 0.052938 -0.0329022 -0.0175539 -0.00673092 0.00962735 0.052228 0.117541 -0.0216824
internal_count=133301558 26347621 21797911 106953937 47974740 58979197 58935800 4549710 4027331 15541799 15239577 6256112 47585182 43149843 20244904 11343122 3062442 522379 3896455
shrinkage=0.1


Tree=32
num_leaves=20
num_cat=0
split_feature=82 90 90 91 84 90 48 97 49 91 65 71 90 91 77 84 77 84 45
split_gain=70862.8 21254.7 10147.8 7054.72 5676.32 4919.95 3962.23 3862.7 3803.75 3793.31 3129.77 2697.65 2683.3 3148.64 2550.38 2465.44 2438.41 3290.34 2851.67
threshold=0.22083062166700004 0.0076758334622100003 0.028354312810100004 0.0065898557896400005 0.00015433128325150004 0.017252505681450005 7032.0000000000009 0.00037426621881750003 427.50000000000006 0.0067247528749900002 0.012509329425600001 0.00056566824074150005 0.059754589089000006 0.0071547142987550003 0.00024235735523150002 0.0036696810565700001 0.00041307254822750008 0.0013636637177000001 82591631.000000015
decision_type=2 2 2 2 2 2 2 2 2 2 2 2 2 2 2 2 2 2 2
left_child=1 4 9 11 6 -5 7 -1 -6 15 -7 -3 13 -4 -9 -2 17 18 -10
right_child=2 3 12 5 8 10 -8 14 16 -11 -12 -13 -14 -15 -16 -17 -18 -19 -20
leaf_value=-0.0093270116418740431 0.0035190406184428379 0.0021288379621804254 0.011468277667925311 -0.0012351130930637194 0.0024326248650269333 0.0030727885742701262 0.0061183994653090648 -0.0030754445928162337 -0.0022845524502086764 0.001648110856121955 -0.0025061657725120087 0.0063841945321958752 0.011461874058936105 0.0058416599118829519 -0.0060954190915785801 0.0073499270809646014 -0.0032977473380694992 0.0012247661962570477 0.0146703549732613
leaf_count=6132940 4223961 3821026 530416 13437751 2970693 3174005 162845 18630166 26539421 5783105 309994 2033006 513844 2077295 11130147 1843946 24421446 5517194 48357
internal_value=0 -0.0144908 0.0513329 0.00839395 -0.0271481 -0.000884918 -0.0433347 -0.0458868 -0.0197258 0.0344648 0.0207718 0.037489 0.0799178 0.0700174 -0.0402646 0.0504014 -0.0223914 -0.0148502 -0.0216574
internal_count=133301558 118328991 14972567 22775782 95553209 16921750 36056098 35893253 59497111 11851012 3483999 5854032 3121555 2607711 29760313 6067907 56526418 32104972 26587778
shrinkage=0.1


Tree=33
num_leaves=20
num_cat=0
split_feature=90 84 90 91 78 97 48 84 78 52 91 93 91 90 84 97 29 30 78
split_gain=65848.9 12978.5 12832.4 10235.6 9672.19 4222.35 4426.98 3836.38 7143.6 2743.55 2721.94 2513.61 2473.78 2518.27 2447.14 2201.89 2318.19 2149.81 1998.6
threshold=0.014243309084450002 0.00059759891999350008 0.032883488004900006 0.0091708611718050014 0.00092861242944300003 0.0018031632804750002 17974.000000000004 0.0021548086423350001 0.0020967046717100001 1186.5000000000002 0.0087140588507350018 0.00021443958903250002 0.0073251982551700004 0.059754589089000006 0.0013124292238100002 0.0032710546557550004 1348.5000000000002 8899.5000000000018 0.0021567338627950005
decision_type=2 2 2 2 2 2 2 2 2 2 2 2 2 2 2 2 2 2 2
left_child=1 5 3 11 14 6 9 18 -9 -1 -10 -2 -4 -14 -3 16 -5 -17 -6
right_child=2 4 12 15 7 -7 -8 8 10 -11 -12 -13 13 -15 -16 17 -18 -19 -20
leaf_value=-0.0076896024343278959 0.0080516151252238034 0.0023085567115823588 0.012979162077183776 0.010086030079285043 -0.0010859067471923481 -0.0023166633233501271 0.0054441819356519077 0.0041154204516914488 0.00061440830649250682 -0.0040837975142607877 -0.0023955260300394412 0.0043806213753031014 0.0060351638407796365 0.010692936279592894 0.0074455886096610599 0.0073704587287690363 -0.0030857290249974422 0.0011170373388146547 -0.0033281140248112556
leaf_count=10278050 1446444 2950926 393238 18330 16431864 37787546 104272 4239671 7942999 18586548 7120614 3672368 1671114 486205 1490178 338585 769124 5350898 12222584
internal_value=0 -0.0163014 0.043348 0.0300607 -0.00342588 -0.0312566 -0.0479945 -0.00905402 0.00219544 -0.0522479 -0.00951631 0.0551179 0.0812029 0.0735219 0.044023 0.00842903 -0.0213473 0.0157255 -0.0195866
internal_count=133301558 119155252 14146306 11595749 52398836 66756416 28968870 47957732 19303284 28864598 15063613 5118812 2550557 2157319 4441104 6476937 787454 5689483 28654448
shrinkage=0.1


Tree=34
num_leaves=20
num_cat=0
split_feature=90 90 91 90 91 91 56 90 48 97 91 90 65 76 93 91 63 66 46
split_gain=60355 15258 11642.9 7991.65 7807.63 4208.53 3828.45 3825.73 3541.67 3898.94 3495.97 3038.81 2589.56 2339.1 2577.99 2216.83 2113.97 2074.96 2006.23
threshold=0.01783105843475 0.0038005864498050004 0.0056178877720600004 0.040923676709900006 0.0091708611718050014 0.0028650540485250001 2201.5000000000005 0.009716349971550001 21238.000000000004 0.00034973442954600004 0.010682703886350002 0.0079938311723300026 0.012509329425600001 0.112035655804 1.7774257819200003e-05 0.0052321823374000013 149.50000000000003 0.0026268817186650005 1453574.0000000002
decision_type=2 2 2 2 2 2 2 2 2 2 2 2 2 2 2 2 2 2 2
left_child=1 8 5 4 15 -3 -4 -8 9 -1 -9 16 -6 14 18 -2 -7 -14 -11
right_child=3 2 6 -5 12 11 7 10 -10 13 -12 -13 17 -15 -16 -17 -18 -19 -20
leaf_value=-0.0072796384863452581 0.010115557184570113 0.0077914554494410791 0.0055052920189020815 0.0089151530963532625 0.0026193476775690349 0.0020277500711429267 -0.0022944489444897292 0.0012115894751310273 0.0066256450716289522 -0.00093566994234128842 -0.00214404434208122 0.0039818235466671749 -0.0032154213726834132 -0.0039414009181371126 -0.0025968716343017961 0.0055829971941677098 -0.0019264828451821649 0.02293086370653194 0.0053823434196073865
leaf_count=8265078 658975 1242465 795685 1503462 4382214 4718877 25595050 8209926 204429 3105714 4955608 3628406 299182 31093627 26809569 2677633 3948881 2769 1204008
internal_value=0 -0.0132652 -0.000937105 0.0499283 0.039266 0.0267297 -0.010951 -0.0128308 -0.0303881 -0.0315993 -0.000222405 0.0193676 0.0193343 -0.0284321 -0.0207562 0.0653371 0.00414892 -0.0250024 0.00952526
internal_count=133301558 123777323 53094898 9524235 8020773 13538629 39556269 38760584 70682425 70477996 13165534 12296164 4684165 62212918 31119291 3336608 8667758 301951 4309722
shrinkage=0.1


Tree=35
num_leaves=20
num_cat=0
split_feature=90 90 84 91 49 90 91 48 84 77 84 82 51 56 48 1 88 91 90
split_gain=55077.4 12676.7 9953.17 9106.44 6588.49 3691.05 3816.12 3473.35 3391.55 3353.74 2810.36 2415.69 2240.07 2237.25 2566.27 2217.41 2151.07 2110.4 2085.67
threshold=0.012659891097600002 0.030540244651500004 0.00019195311636300002 0.0091708611718050014 906.50000000000011 0.0076758334622100003 0.0073619999160350015 30198.500000000004 0.0010979659214900002 0.00024235735523150002 0.0033872303140250006 0.45530590078450006 30585.500000000004 6140.5000000000009 17147.500000000004 334.50000000000006 0.0057285823606150017 0.010613903788950002 0.020125318725200004
decision_type=2 2 2 2 2 2 2 2 2 2 2 2 2 2 2 2 2 2 2
left_child=2 3 7 10 8 12 -7 9 -4 -1 -2 17 -6 -5 18 -16 -14 -3 -15
right_child=1 11 4 13 5 6 -8 -9 -10 -11 -12 -13 16 14 15 -17 -18 -19 -20
leaf_value=-0.0028634862356495287 0.0028158057765098779 0.0082530303025066757 0.000466700490367506 0.0047521841829174438 -0.0021088810706358352 0.0021523437676984991 -0.0015599367022929586 0.006428024346021354 0.0052965934344856571 -0.0057885009819353926 0.0062233410048922067 0.010596384191799641 0.022312092802467605 -0.0006423131424930068 -0.0046590772969646614 0.0074518566618270972 0.0018669891242724468 0.004401060087874711 0.0026402503037025633
leaf_count=25399355 3134709 1168593 7305082 580637 50619572 6040497 6797245 33109 2540342 17147375 3320165 665394 29380 4326475 644752 24038 174195 1205161 2145482
internal_value=0 0.0367844 -0.0166769 0.0240422 -0.00866823 -0.0137609 0.00152142 -0.036665 0.0204756 -0.0385996 0.0462712 0.0724097 -0.0201525 0.00412534 -0.000626799 -0.0351379 0.0696379 0.0626238 0.00697825
internal_count=133301558 17215406 116086152 14176258 73506313 63660889 12837742 42579839 9845424 42546730 6454874 3039148 50823147 7721384 7140747 668790 203575 2373754 6471957
shrinkage=0.1


Tree=36
num_leaves=20
num_cat=0
split_feature=82 90 82 80 84 84 78 76 93 90 72 56 84 78 51 88 78 90 97
split_gain=51266.1 14966.3 7963.28 5556.24 4674.57 3603.55 3491.81 3275.74 3297.06 3190.72 2754.69 2429.57 2121.36 2046.15 1966.11 2131.9 1919.08 2034.93 1862.48
threshold=0.22083062166700004 0.0076758334622100003 0.39312861924250003 0.00039443577744100003 0.00048299080051900008 0.0028847791626850001 0.00085625373499200006 0.11146992158200002 1.2959145598750002e-06 0.022471085371250005 0.0022875644785750001 2929.5000000000005 0.0015452877686650001 0.00086624895068250008 30585.500000000004 0.0057285823606150017 0.0020555533773550004 0.036494231501900003 0.00024577981991800009
decision_type=2 2 2 2 2 2 2 2 2 2 2 2 2 2 2 2 2 2 2
left_child=1 4 5 10 7 -2 -6 8 -1 11 -3 -5 -4 -9 -8 -16 -7 -18 -10
right_child=2 3 12 9 6 16 14 13 18 -11 -12 -13 -14 -15 15 -17 17 -19 -20
leaf_value=0.0042269244023038239 0.0018225743146189429 0.00098675942034294386 0.0045393938604207035 0.0051954172908135155 0.002722537669173155 0.0070214549633045367 -0.0018401714599615392 -0.0032536170905121289 -0.0082928764966919942 0.0026883062739558009 0.0045459625247283395 -0.001358831846852015 0.0098104429765718884 -0.0061614649364143178 0.021144536278050841 0.0013905057640866553 0.0026580314407695111 0.0069172539966292764 -0.0024583281554196226
leaf_count=1131789 7431371 5012731 594082 304389 2800882 1753945 36755756 13590084 1962366 1248168 4120540 12093051 1481896 16084635 29251 174133 3117101 594106 23021282
internal_value=0 -0.0128425 0.0451012 0.00699116 -0.023727 0.0348363 -0.0132601 -0.0337044 -0.0234662 -0.00414785 0.027297 -0.0106298 0.0847175 -0.0476658 -0.0172083 0.0655636 0.0487855 0.0381916 -0.0272598
internal_count=133301558 118329057 14972501 22778879 95550178 12896523 39760022 55790156 26115437 13645608 9133271 12397440 2075978 29674719 36959140 203384 5465152 3711207 24983648
shrinkage=0.1


Tree=37
num_leaves=20
num_cat=0
split_feature=90 90 91 90 94 56 56 85 91 90 91 76 93 91 72 97 84 92 97
split_gain=47687.9 13057.9 9979.89 5799.88 5387.31 3502.13 3482.01 2924.57 2858.2 2781.39 2971.49 2714.54 2367.65 2156.97 2035.98 1769.95 1762.34 1874.01 1719.61
threshold=0.018869850251000003 0.0045688819616050008 0.0056178877720600004 0.040923676709900006 0.00047175971707200001 421067.50000000006 1967.5000000000002 0.00015110535265350003 0.0030824427408800005 0.009716349971550001 0.010682703886350002 0.11964348357250001 1.2959145598750002e-06 0.0052321823374000013 0.0023216240897000005 0.0038120304796950004 0.00014120098963350003 0.00012212510264150004 0.00099905237771300026
decision_type=2 2 2 2 2 2 2 2 2 2 2 2 2 2 2 2 2 2 2
left_child=1 5 8 4 13 7 -4 11 -3 -8 -11 12 -1 -2 -10 -13 18 -18 -14
right_child=3 2 6 -5 -6 -7 9 -9 14 10 -12 15 16 -15 -16 -17 17 -19 -20
leaf_value=0.0031606036244514325 0.0094828830972958494 0.0070398388927325395 0.0063558867087554795 0.0082151106976568761 0.001141965926821895 0.029125069540071616 -0.0019746200282368966 0.0044487900408895177 0.00093220742717321347 0.0011606333857679958 -0.0018407165069794223 -0.0050915307372336079 -0.0064468894325819094 0.004713464173027722 0.004238730159508433 -0.0024802027436375725 -0.00082266316722741156 -0.0031458686108206007 -0.00271297855630615
leaf_count=1436593 554064 1235243 516230 1504168 2696607 7265 21428108 1048543 6085118 8642537 5375011 22458758 5503377 3800505 3452732 9524914 17457256 11617892 8956637
internal_value=0 -0.0114297 0.00127427 0.0479327 0.0377929 -0.0258934 -0.00799493 -0.0262257 0.0297323 -0.0097001 0.000232535 -0.0274716 -0.0210526 0.0536343 0.022171 -0.0404354 -0.0231134 -0.0171162 -0.0371093
internal_count=133301558 124746214 46734979 8555344 7051176 78011235 35961886 78003970 10773093 35445656 14017548 76955427 44971755 4354569 9537850 31983672 43535162 29075148 14460014
shrinkage=0.1


Tree=38
num_leaves=20
num_cat=0
split_feature=90 90 91 90 91 56 72 52 51 49 65 97 77 91 90 85 90 80 91
split_gain=43669.9 10783 8652.33 6457.5 5358.47 3154.12 3216.02 3096.23 2926.06 2711.95 2459.26 2353.6 2441.98 2015.31 2007.15 1933.84 1755.44 2275.53 1624.13
threshold=0.017252505681450005 0.0038005864498050004 0.005062523029835001 0.032883488004900006 0.0068252855433050012 2276.5000000000005 0.00034730252564000008 5214.0000000000009 12209.500000000002 1396.5000000000002 0.012509329425600001 0.00067102151768100012 0.0064523358652550005 0.0073864402687950003 0.059754589089000006 0.0001314906494995 0.009716349971550001 0.00030113716012050007 0.0023831796062500003
decision_type=2 2 2 2 2 2 2 2 2 2 2 2 2 2 2 2 2 2 2
left_child=1 8 7 4 -2 -4 -7 18 11 -8 -6 12 -1 -5 -15 -13 -11 -18 -3
right_child=3 2 5 13 10 6 9 -9 -10 16 -12 15 -14 14 -16 -17 17 -19 -20
leaf_value=-0.0054166990691191024 0.0066208169710366338 0.0095567095844591981 0.0050576636617397294 0.011532235770657292 0.0023894292388301681 -0.0037137550879864593 0.0017484275843039699 0.00037254573460351062 0.0055366729846032864 -0.0018468929447136178 -0.002822499256056917 -0.0025260451081352909 0.0098188216045221616 0.0050268761650892743 0.0094199614097717037 0.003556400251517735 0.0027305462509418944 -0.00091237009730221633 0.0036909448543940766
leaf_count=14649920 1707927 436466 858791 419091 5485010 7007836 4978258 4796118 356908 19763157 306374 54677096 17399 1644233 485782 984639 2313721 7188589 5224243
internal_value=0 -0.0117035 -0.00091865 0.0430294 0.0301362 -0.00867338 -0.0103989 0.0274918 -0.0263773 -0.00638679 0.018302 -0.0276174 -0.050062 0.0700361 0.0626101 -0.0239294 -0.0107451 -0.000434362 0.0429624
internal_count=133301558 123253141 52567179 10048417 7499311 42110352 41251561 10456827 70685962 34243725 5791384 70329054 14667319 2549106 2130015 55661735 29265467 9502310 5660709
shrinkage=0.1


Tree=39
num_leaves=20
num_cat=0
split_feature=90 90 91 84 78 48 97 90 52 91 41 94 56 49 77 72 91 57 93
split_gain=40702.1 10501.9 6712.83 6712.45 5256.67 3218.08 3604.43 2675.05 2381.19 2169.44 2043.16 2344.08 1785.37 1669.66 1647.69 1632.56 1630.87 1598.48 1559.79
threshold=0.011587410580300002 0.025592241842100003 0.0083045370150850017 0.0011164999510300002 0.0013820078954050001 29752.000000000004 0.0018031632804750002 0.046708038334900011 2276.5000000000005 0.0073864402687950003 8066.0000000000009 0.00015698725445250004 11247.500000000002 5192.0000000000009 0.00030797972292600004 0.00022532436710500002 0.0094732154791650012 1669.5000000000002 1.4783068691850003e-05
decision_type=2 2 2 2 2 2 2 2 2 2 2 2 2 2 2 2 2 2 2
left_child=3 2 10 5 13 6 8 9 -1 -3 11 -2 -4 -5 15 18 -9 -17 -8
right_child=1 7 12 4 -6 -7 14 16 -10 -11 -12 -13 -14 -15 -16 17 -18 -19 -20
leaf_value=-0.0057174804654272129 0.008152501807382204 0.0078096913817976149 0.0025047129332688195 0.0045192047515231273 -0.00086945834695809879 0.0065684313867533763 0.00051257805610532131 0.013172772594876798 -0.0026996751371826306 0.003730794952857476 0.0086227229382009364 0.0026825110939009546 -0.00057762174194721228 -0.00027050980325626282 -0.0030415789765511399 0.0044396697610385649 0.0071520037780893808 -0.00084786122645463054 -0.003404717324216554
leaf_count=15978585 535362 907871 1749333 3538035 26947979 77996 2664664 264763 17198915 2608229 604757 4980350 7305448 1796051 16789809 1141342 767994 17505466 9938609
internal_value=0 0.030663 0.0170215 -0.0155266 -0.00127605 -0.0237984 -0.0247965 0.0574968 -0.0402332 0.0473258 0.0390069 0.0336165 0.000968549 0.0326051 -0.0182436 -0.0128321 0.0846969 -0.00561201 -0.0258903
internal_count=133301558 19724107 15175250 113577451 32282065 81295386 81217390 4548857 33177500 3516100 6120469 5515712 9054781 5334086 48039890 31250081 1032757 18646808 12603273
shrinkage=0.1


Tree=40
num_leaves=20
num_cat=0
split_feature=90 84 90 78 94 48 97 78 84 76 82 93 91 41 57 90 94 41 49
split_gain=37656.9 8109.23 7604.67 5619.46 5265.34 3203.06 3658.94 2663.37 3648.22 2111.46 2010.99 1883.74 1653.19 1644.33 1602.77 1585.37 1572.1 1511.78 1712.56
threshold=0.014243309084450002 0.0010107066709550002 0.028354312810100004 0.00092861242944300003 0.00029732368131900002 29752.000000000004 0.0024789139497450002 0.0025265854249850003 0.0027647947961950002 0.11101964567750001 0.45530590078450006 1.7774257819200003e-05 0.014463173740700002 1764.5000000000002 6347.5000000000009 0.00041720327880800007 0.00033369802224050008 8066.0000000000009 49877.000000000007
decision_type=2 2 2 2 2 2 2 2 2 2 2 2 2 2 2 2 2 2 2
left_child=1 5 4 -3 17 6 9 8 -5 11 16 -1 14 -12 -6 -13 -4 18 -2
right_child=2 3 10 7 12 -7 -8 -9 -10 -11 13 15 -14 -15 -16 -17 -18 -19 -20
leaf_value=0.00021189901410128761 0.0046060737759437221 0.0052465361016560859 0.007860433361063044 -0.0003317418568778782 0.00549548416500871 0.0059693645285739966 -0.0015082642616139753 -0.0013335860681974497 0.0036625560973513726 -0.0052111403060455452 0.0067321679589422328 -0.0071825170827026722 -0.0011546868129846909 0.013388149012260694 0.0011144059576408993 -0.0028220588595311621 0.004250665679992752 0.0096249707553550876 -0.006451203230902665
leaf_count=4315449 2696454 2203949 825870 13853640 633159 84318 38585782 18869836 3886188 20155937 467439 3271632 1767378 245321 5063727 13926028 2001855 355280 92316
internal_value=0 -0.0126247 0.0349236 0.000698041 0.0218833 -0.0224656 -0.0235615 -0.00343301 0.00761886 -0.0358538 0.0605072 -0.0267909 0.00895304 0.0922571 0.0168548 -0.0338725 0.0522771 0.0488533 0.0423344
internal_count=133301558 119152759 14148799 38813613 10608314 80339146 80254828 36609664 17739828 41669046 3540485 21513109 7464264 712760 5696886 17197660 2827725 3144050 2788770
shrinkage=0.1


Tree=41
num_leaves=20
num_cat=0
split_feature=82 90 84 49 76 41 93 49 87 72 56 48 83 82 91 90 67 97 91
split_gain=34823 8684.37 6971.02 3226.18 3213.19 3096.7 2310.71 2326.91 2418.1 2293.56 2333.14 2270.98 2155.9 1777.77 1693.21 1779.16 1680.83 1674.69 1629.16
threshold=0.18206244066300001 0.020125318725200004 0.0013636637177000001 1462.5000000000002 0.11964348357250001 8066.0000000000009 1.2959145598750002e-06 101351.50000000001 0.0067195898573900008 0.00025519066458800006 2509.5000000000005 15059.500000000002 0.0010793433011200002 0.50672305598300016 0.0036154008436950005 0.0088035799484300018 0.00019127409219900005 0.0043897135714100009 0.0052321823374000013
decision_type=2 2 2 2 2 2 2 2 2 2 2 2 2 2 2 2 2 2 2
left_child=2 9 4 -4 6 11 -1 8 -8 -2 -11 13 16 18 -12 -16 -5 -6 -3
right_child=1 5 3 12 17 -7 7 -9 -10 10 14 -13 -14 -15 15 -17 -18 -19 -20
leaf_value=0.0035629831468875599 -0.0019377285186951889 0.0088084107741090798 0.0040698920875161223 -0.00090355492160525499 -0.0045338110931847295 0.0092328817190429884 -0.0021364176687438826 0.011512360072245372 0.0013440265406146075 0.010131113649839874 0.004427737934119695 -0.0060949256671612717 0.0028460145918986521 0.0092033536208493884 -0.00081191701538161373 0.0020278998140325008 0.0033844446818886119 -0.0019743247484829982 0.0038569320615587537
leaf_count=1437229 2997454 384133 2433639 22383423 24709559 757729 44790057 110850 2419718 389427 2166792 80417 1290758 394366 5399319 7164421 1292618 8106437 4593212
internal_value=0 0.0304278 -0.0137096 0.000909035 -0.0219751 0.0508761 -0.0158359 -0.0175808 -0.0182853 0.0140302 0.0188066 0.0443949 -0.00298197 0.0465576 0.0165579 0.0115682 -0.00659425 -0.0361765 0.0425553
internal_count=133301558 24327270 108974288 27400438 81573850 6209857 48757854 47320625 47209775 18117413 15119959 5452128 24966799 5371711 14730532 12563740 23676041 32815996 4977345
shrinkage=0.1


Tree=42
num_leaves=20
num_cat=0
split_feature=90 90 91 84 91 48 84 78 49 56 47 49 97 91 93 29 66 32 1
split_gain=32443.9 8127.26 6500.44 5684.07 3755.81 3229.51 3383.28 2954.67 2732.33 2583.73 2287.33 2143.55 1992.78 1910.21 1761.47 1688.06 1664.59 1502.67 2045.77
threshold=0.016771950625450002 0.0064076946176750008 0.0054760023515700003 0.016053150903000003 0.011677937780100001 30198.500000000004 0.00015433128325150004 0.0040643765194200007 427.50000000000006 6140.5000000000009 150178.00000000003 68638.000000000015 0.00037426621881750003 0.0086527009432050012 1.6759864382950003e-05 6569.5000000000009 0.0033011643635950006 623.50000000000011 267.50000000000006
decision_type=2 2 2 2 2 2 2 2 2 2 2 2 2 2 2 2 2 2 2
left_child=1 5 -3 4 11 6 12 -5 -8 10 -4 -2 -1 16 15 -14 -11 -6 -19
right_child=3 2 9 7 17 -7 8 -9 -10 13 -12 -13 14 -15 -16 -17 -18 18 -20
leaf_value=-0.0071165888670680997 0.004614656864298571 0.0035082321651447191 0.0014825025459917721 0.012603932938569387 0.0016741444819993502 0.0061800483203791577 0.0023442640396790023 0.0057389708068754106 -0.001683779828126189 -0.00081376842931354736 0.010925532420095096 -0.0011306319292244949 -0.0031257014044313368 -0.0018862958266783799 -0.003814732705517394 0.0012929481821538269 0.0021080160102395404 -0.0052644979677938233 0.0043207781630900206
leaf_count=6183401 5148613 5502067 2045290 388750 3122898 107294 3237237 1082666 52942700 7869136 244879 401253 5556190 11379428 20205048 3867725 3606873 263750 146360
internal_value=0 -0.0105344 0.003501 0.0373353 0.0289426 -0.0194897 -0.0204961 0.074696 -0.0140865 -0.0046713 0.0270622 0.0416682 -0.0340336 -0.00874048 -0.0297502 -0.0110763 0.00190024 0.00900406 -0.0246727
internal_count=133301558 122747268 30647673 10554290 9082874 92099595 91992301 1471416 56179937 25145606 2290169 5549866 35812364 22855437 29628963 9423915 11476009 3533008 410110
shrinkage=0.1


Tree=43
num_leaves=20
num_cat=0
split_feature=90 90 84 80 49 90 94 48 84 78 56 77 94 78 93 45 75 64 90
split_gain=30078.2 8125.11 5306.56 4889.54 3562.34 2599.97 2305.91 2291.78 2212.57 3378.52 2074.2 2068.11 1916.19 1784.58 1676.48 2006.4 1657.86 1458.14 1424.39
threshold=0.011381152835900002 0.024451494588150002 0.00015433128325150004 0.00030113716012050007 462.50000000000006 0.059754589089000006 0.00045766586542250005 29752.000000000004 0.0021174457138100002 0.0020215686340650002 12509.500000000002 0.00024484068463450005 3.1187105871000007e-05 0.0021766900426900006 1.3855604748300001e-05 862796.00000000012 0.005990277682150001 0.071718869291050022 0.00024780790069150007
decision_type=2 2 2 2 2 2 2 2 2 2 2 2 2 2 2 2 2 2 2
left_child=2 3 7 16 12 6 -3 11 13 -10 -5 14 -4 -6 15 -1 -2 -12 -16
right_child=1 5 4 10 8 -7 -8 -9 9 -11 17 -13 -14 -15 18 -17 -18 -19 -20
leaf_value=-0.0022764199501012819 0.0059169598092150399 0.0056076852131483135 -0.0023759536713918376 0.0026329351565467073 -0.0010450921728486771 0.0090410723157998887 0.0022271549087704142 0.0048397573379856951 0.0033491948040100376 -0.00081302285352363658 -0.005442015007760914 -0.0050111977866766043 0.0039400900346956988 -0.0028966699869834474 -0.00761278959756298 0.003844437490503368 0.0023309727450919154 -9.0342661147198468e-05 -0.0027128984454668457
leaf_count=4619291 1850484 2775798 1590883 2202852 37043390 522493 1764562 36013 3586628 13006967 305431 14979507 2944176 16289730 2612179 1889100 2355363 8456892 14469819
internal_value=0 0.0267109 -0.0138125 0.0139079 -0.00790512 0.0496483 0.0432128 -0.0303884 -0.0105343 0.00119386 0.00323704 -0.0324313 0.0260071 -0.0156222 -0.0240035 -0.000692399 0.0397132 -0.00391324 -0.0316552
internal_count=133301558 20233875 113067683 15171022 74461774 5062853 4540360 38605909 69926715 16593595 10965175 38569896 4535059 53333120 23590389 6508391 4205847 8762323 17081998
shrinkage=0.1


Tree=44
num_leaves=20
num_cat=0
split_feature=90 90 91 84 78 41 76 93 97 51 56 91 82 75 91 78 82 40 69
split_gain=27452.7 8818.88 5471.94 3975.41 3487.42 2481.22 2095.79 2485.3 2203.99 1928.84 1843.32 1755.51 1622.87 1584.89 1547.2 1487.68 1466.56 1448.61 1333.08
threshold=0.0094316863663750014 0.024451494588150002 0.0067578494436850009 0.00085311897315800008 0.00076717530081650011 9546.5000000000018 0.097243596303350013 1.8742404879950002e-05 0.0038120304796950004 305.50000000000006 5494.5000000000009 0.0054760023515700003 0.50672305598300016 0.0054927495379550008 0.013183649264650002 0.0021567338627950005 0.081893823344500016 1682.0000000000002 0.006958147402095001
decision_type=2 2 2 2 2 2 2 2 2 2 2 2 2 2 2 2 2 2 2
left_child=3 2 13 6 -5 11 7 9 -8 -1 -4 -3 17 18 -12 -6 -9 -13 -2
right_child=1 5 10 4 15 -7 8 16 -10 -11 14 12 -14 -15 -16 -17 -18 -19 -20
leaf_value=-0.0011008030901023752 0.0043205263846934697 0.0098037105243108449 0.0036622457957690168 0.0053116978442349951 0.00033243164753517414 0.0091376444143021519 -0.0039974724420657514 -0.0029125201388943973 -0.0016821167661826516 0.0048451594710084605 0.00044034292088796954 0.0036972398095674354 0.008594247713840323 0.0021853135692600917 -0.0018986631311219374 -0.0014717809839380053 -0.00048223261682824731 -0.0033815029662986004 0.010096140063656851
leaf_count=2289510 2305093 288371 1001853 1262769 14094321 556339 34170296 12325891 16292509 1210900 10694860 3752570 347531 3536315 3438902 19246014 6062710 118109 306695
internal_value=0 0.0226815 0.011789 -0.0149142 -0.00395484 0.0477701 -0.0223499 -0.0125158 -0.0296823 0.018114 0.00132007 0.0419457 0.0383141 0.0350176 -0.00204627 -0.00705359 -0.0190517 0.0341045 0.0522393
internal_count=133301558 26346638 21283718 106954920 34603104 5062920 72351816 21889011 50462805 3500410 15135615 4506581 4218210 6148103 14133762 33340335 18388601 3870679 2611788
shrinkage=0.1


Tree=45
num_leaves=20
num_cat=0
split_feature=90 84 49 90 94 82 48 97 77 93 72 30 59 72 77 71 84 78 30
split_gain=25973.3 6785.87 4928.82 4153.01 3443.34 2451.76 2025.46 2742.05 1907.19 1764.17 1759.54 2434.44 1586.98 1458.03 1428.35 2022.87 1850.67 1496.79 1628.46
threshold=0.017252505681450005 0.00047257127509000007 576.50000000000011 0.046708038334900011 0.00029732368131900002 0.21274565565750003 15059.500000000002 0.00045102969553000006 0.00024599571225300006 1.7014108593000003e-06 0.00063887607979800016 8899.5000000000018 196.50000000000003 7.7695256018700008e-05 0.00039696997174400005 0.0005989821586530001 0.0021548086423350001 0.0043626145747850007 3308.5000000000005
decision_type=2 2 2 2 2 2 2 2 2 2 2 2 2 2 2 2 2 2 2
left_child=1 6 -3 4 -2 14 7 -1 9 -9 12 -12 -6 -11 15 -4 -16 18 -18
right_child=3 2 5 -5 10 -7 -8 8 -10 13 11 -13 -14 -15 16 -17 17 -19 -20
leaf_value=-0.0060411462726446801 0.005403233641927639 0.0042526243721810611 -0.0004944724012656542 0.0074263397357081061 0.00060525470172534282 0.0017257629612670144 0.0031829374381865134 0.0043484479601835352 -0.0032633870241303461 -0.0033780445030901409 0.0099760943638557368 0.0021697973586799436 -0.0066266100788845948 -0.00097847427500574085 -0.0025864171389573427 0.0027529351134668208 0.017837044691196822 -0.0014655422243530884 0.0007329665526920855
leaf_count=8667472 2401842 3197197 18752383 1033223 1411468 6042367 458004 1315922 23059585 8287671 164653 4904462 135644 20263911 15229888 3562590 45910 8016091 6351275
internal_value=0 -0.00929379 -0.000948557 0.0349624 0.0286617 -0.00390147 -0.0221279 -0.0236316 -0.020562 -0.0135144 0.0192719 0.0255392 -0.00734003 -0.0157011 -0.00712451 0.0005059 -0.0131244 -0.00480703 0.00957609
internal_count=133301558 123250266 61197701 10051292 9018069 58000504 62052565 61594561 52927089 29867504 6616227 5069115 1547112 28551582 51958137 22314973 29643164 14413276 6397185
shrinkage=0.1


Tree=46
num_leaves=20
num_cat=0
split_feature=90 90 84 91 49 1 32 76 93 97 51 82 78 78 83 82 60 51 56
split_gain=24108.9 5844.95 4943.27 4246.15 3438.75 2192.66 2532.79 2003.72 2271.03 2039.39 1687.91 1516.81 1476.12 1459.15 1701.04 1399.28 1311.39 1273.45 1190.42
threshold=0.012659891097600002 0.032883488004900006 0.0011164999510300002 0.006119464342050001 1216.5000000000002 236.50000000000003 623.50000000000011 0.093304880229700016 1.7774257819200003e-05 0.0036207123489800006 305.50000000000006 0.072712158988850015 0.0051027155429650009 0.0021794956741950007 0.00051219870691600019 0.45530590078450006 336.50000000000006 339.50000000000006 385327.50000000006
decision_type=2 2 2 2 2 2 2 2 2 2 2 2 2 2 2 2 2 2 2
left_child=2 3 7 -2 -4 6 -5 8 10 -9 -1 17 -7 14 -6 -3 -17 -10 -19
right_child=1 15 4 5 13 12 -8 9 11 -11 -12 -13 -14 -15 -16 16 -18 18 -20
leaf_value=-0.00075159316748039679 0.0048257748767354756 0.0046965985976946808 0.0033825763439543481 0.0006840399228110009 -4.7585737154588658e-05 0.0035322239966242668 -0.0042685145164230902 -0.00351600141244397 -0.0049609852819173178 -0.0015386404111444863 0.0050991710631172298 -0.00038693785064424646 0.00060071692942137206 -0.0011334148783922963 0.0039533432237613166 0.0056780684200745538 0.012316332005788836 -0.0017362572957010467 0.0316345329612314
leaf_count=1967208 2607547 1933666 3701392 5602031 9760651 3537493 618166 37635292 4185905 22459847 1057581 8293681 2302215 18840422 1677780 357198 258372 6503181 1930
internal_value=0 0.0263958 -0.0115336 0.018159 0.000370996 0.0106545 -0.00078277 -0.019043 -0.00931799 -0.0251194 0.0219423 -0.0148895 0.0233955 -0.00443472 0.00687352 0.0559075 0.0857344 -0.0273267 -0.0163348
internal_count=133301558 17216688 116084870 14667452 33980245 12059905 6220197 82104625 22009486 60095139 3024789 18984697 5839708 30278853 11438431 2549236 615570 10691016 6505111
shrinkage=0.1


Tree=47
num_leaves=20
num_cat=0
split_feature=90 90 91 48 48 83 63 84 56 57 46 82 85 77 84 77 93 53 41
split_gain=22358.9 6292.33 5279.69 3406.9 3268.12 3210.8 2795.75 2400.36 2086.73 1859.47 1961.24 1687.46 1614.18 1546.92 1969.79 1535.76 1546.14 1526.62 1366.94
threshold=0.018869850251000003 0.0066560489680000008 0.0073619999160350015 30198.500000000004 17974.000000000004 0.0016674278072550002 275.50000000000006 7.6191827810500015e-05 3796.5000000000005 2790.5000000000005 4059069.5000000005 0.45530590078450006 0.00022677554775750005 0.00031221659496550008 0.0013878120834150002 0.00023749719968400003 7.3374387385500005e-06 299374.00000000006 11864.500000000002
decision_type=2 2 2 2 2 2 2 2 2 2 2 2 2 2 2 2 2 2 2
left_child=1 3 6 7 5 8 17 15 -2 10 -4 18 13 14 -9 16 -1 -3 -7
right_child=4 2 9 -5 -6 11 -8 12 -10 -11 -12 -13 -14 -15 -16 -17 -18 -19 -20
leaf_value=0.00060413924200360429 0.013568271739189475 0.0033550982999667753 0.0019651841687208247 0.006566393822545211 -0.0013753301077753617 0.0045215286655050048 0.00042517827406330142 -0.0010504836710167145 0.0027890545052505385 -0.0011834303757380341 0.019296966690125549 0.011272309980140784 0.0046811847719693987 -0.0020838504585892217 0.0027030583164452532 -0.0051080911281441779 -0.0031813325786691615 0.01454693358881794 0.0097186660397776542
leaf_count=4287463 87529 6060882 974103 125130 458157 1368930 7063593 26150486 5990857 16865440 12628 307355 758628 36547712 2642520 10777373 12380489 101482 340801
internal_value=0 -0.00812262 0.00402271 -0.0162119 0.0353788 0.03997 0.0204542 -0.0172944 0.0299928 -0.00852678 0.0302004 0.0642581 -0.0129513 -0.0138754 -0.00615658 -0.0318616 -0.0226913 0.0360174 0.0552333
internal_count=133301558 124747929 31078128 93669801 8553629 8095472 13225957 93544671 6078386 17852171 986731 2017086 66099346 65340718 28793006 27445325 16667952 6162364 1709731
shrinkage=0.1


Tree=48
num_leaves=20
num_cat=0
split_feature=90 84 78 90 91 85 48 84 77 91 78 41 72 30 92 56 73 68 59
split_gain=20616.5 5599.38 4923.7 3442.35 2891.76 2397.31 2155.53 2420.74 2650.07 1470.18 1341.14 1219.23 1208.8 2352.42 1185.08 1183.97 1163.47 1137.84 1136.13
threshold=0.017252505681450005 0.0020753232939400004 0.0020967046717100001 0.046708038334900011 0.0091708611718050014 0.00024354061729050004 29752.000000000004 3.6053776294400007e-05 0.00031221659496550008 0.0087140588507350018 0.00069064674467300008 15521.500000000002 0.00063887607979800016 8899.5000000000018 0.00022354325883700002 421067.50000000006 4.5060627874950016e-05 9.1745436669000001e-05 196.50000000000003
decision_type=2 2 2 2 2 2 2 2 2 2 2 2 2 2 2 2 2 2 2
left_child=1 5 -3 4 11 6 7 10 16 -4 -1 -2 18 -14 15 -8 -9 -5 -6
right_child=3 2 9 17 12 -7 14 8 -10 -11 -12 -13 13 -15 -16 -17 -18 -19 -20
leaf_value=-0.0022178134774511562 0.0038660719932817641 0.0034381715472761604 0.00083551421643378104 -0.030469995056630551 0.00028958631734271676 0.0039109269729318188 0.0036215263961708087 -0.0010622920300988768 -0.0023357054215753753 -0.0013186201021942018 -0.0050610793878937315 0.0092494438767934378 0.010073774385555448 0.0015495453512916653 -0.0011180787395068256 0.014543418007629148 0.00056731989234762325 0.0070026521761297079 -0.0061797210070879682
leaf_count=11744505 3440035 5922652 8862976 6895 1254484 1175199 122403 29215777 35372765 8540506 10334329 294436 126419 3766489 273351 63981 11623268 1025321 135767
internal_value=0 -0.00827264 0.00686526 0.0318128 0.0260395 -0.0142571 -0.0152712 -0.0163142 -0.0129816 -0.00335277 -0.0333904 0.0427951 0.0137094 0.0200983 0.0322732 0.0615004 -0.00580524 0.0686377 -0.00975489
internal_count=133301558 123251712 23326134 10049846 9017630 99925578 98750379 98290644 76211810 17403482 22078834 3734471 5283159 3892908 459735 186384 40839045 1032216 1390251
shrinkage=0.1


Tree=49
num_leaves=20
num_cat=0
split_feature=90 90 91 84 48 84 63 78 48 67 80 73 56 47 13 85 34 78 84
split_gain=19268.4 5662.99 4938.94 2857.29 2719.2 2091.51 2041.94 1998.84 1929.17 1776.26 1697.92 1625.18 1561.22 1839.69 1503.87 1476.72 1381.55 1338.52 1589.31
threshold=0.018869850251000003 0.0064076946176750008 0.0064075863914600005 0.016053150903000003 30198.500000000004 6.7476747721250017e-05 211.50000000000003 0.0040643765194200007 15059.500000000002 0.00020510391091100002 0.00027466087151250005 5.7515673507550011e-05 7991.5000000000009 150178.00000000003 1.5000000000000002 0.00016622773629150004 357.50000000000006 0.0018128028752050001 0.0013636637177000001
decision_type=2 2 2 2 2 2 2 2 2 2 2 2 2 2 2 2 2 2 2
left_child=1 4 6 8 5 -1 -3 -5 11 12 -11 -2 13 -4 -6 17 -14 18 -7
right_child=3 2 9 7 14 15 -8 -9 -10 10 -12 -13 16 -15 -16 -17 -18 -19 -20
leaf_value=-0.0030576544404020702 0.0016282664329957007 0.0040138860724002147 0.0003086164504433745 0.010772660470866594 0.0033597121520225664 -0.0011406347194956182 0.00091678713161586595 0.0046592876681360341 -0.00093180546937410768 0.0092634833495228563 0.00099749334019600712 0.004219534968096769 -0.0012189722960665441 0.0081112962319724573 0.018006408853432462 0.0036737809251640497 -0.010725534225516656 -0.002173282765963794 0.0017744679544355038
leaf_count=26063041 2728242 4253615 2813455 388883 79877 33826857 5843174 1081672 551305 315751 1359218 3803301 17685559 314140 27303 1081795 61276 26992399 4030695
